static double w1[HIDDEN0_LAYER_CNT][INPUT_LAYER_CNT] =
{
{ -0.021701645, -0.007034383, -0.022452625, -0.019537853, -0.028986217, -0.029463148, -0.015392526, -0.029853809, -0.012376748, -0.015585789, 
-0.009221940, -0.018875624, -0.013716559, -0.007943570, -0.029476954, -0.010811281, 0.010267274, -0.023538101, -0.030954802, 0.025295761, 
0.010792524, 0.001963540, 0.000417643, 0.027608855, -0.021082533, -0.025442770, -0.029221531, 0.015101735, 0.009580642, 0.025442892, 
-0.006179696, 0.021339334, -0.015068290, 0.005873896, -0.018799205, 0.017087297, 0.049047343, 0.019679791, 0.052181134, 0.094158740, 
0.140667572, 0.101622538, 0.030550279, 0.094207230, 0.080720726, 0.015546299, 0.001009896, 0.029779908, 0.013749725, 0.016641957, 
0.049828780, -0.018271261, 0.013603817, 0.032246532, 0.029159971, 0.025728963, -0.025961296, 0.032685861, 0.007384737, 0.017094016, 
0.027614897, -0.030530316, 0.024806732, 0.030648463, 0.083619698, 0.122732082, 0.175306419, 0.178132826, 0.278347526, 0.252006005, 
0.196202331, 0.207661888, 0.197803521, 0.135510828, 0.114369891, 0.118633720, 0.113697164, 0.092678039, 0.096105658, 0.075740850, 
0.008257564, 0.012280865, 0.031192255, -0.015389550, 0.013485390, 0.027575150, -0.022790594, 0.021253458, 0.029527232, 0.022828613, 
0.040985582, 0.112849882, 0.194198299, 0.219939430, 0.277467767, 0.311178455, 0.377438863, 0.344533589, 0.284662911, 0.291480583, 
0.223469079, 0.193679344, 0.078347750, 0.016156807, 0.117860354, 0.120836168, 0.189290286, 0.217835686, 0.123256415, 0.033911974, 
0.027176139, -0.011384883, 0.002396996, 0.010667936, 0.007806188, -0.020643226, 0.005078142, 0.006035572, 0.047905692, 0.165278554, 
0.170373077, 0.126431661, 0.211512651, 0.220441061, 0.263432490, 0.184451557, 0.232308861, 0.252747732, 0.168746141, 0.168772828, 
0.217558514, 0.165889712, 0.210340697, 0.279970196, 0.269912340, 0.158632570, 0.101471109, 0.070657253, 0.066101333, -0.019351010, 
-0.001347496, 0.011270655, 0.004240925, -0.039162837, -0.028748962, -0.035217844, -0.010662333, 0.123294904, 0.071152447, -0.041256437, 
0.145373011, 0.262152250, 0.271887356, 0.302306881, 0.233324279, 0.113788365, 0.039941835, 0.087845777, 0.056836180, 0.111694550, 
0.124620592, 0.237998160, 0.033040527, -0.182458797, -0.116120701, 0.027255737, 0.011840271, 0.006766558, -0.014487677, -0.023307533, 
0.025674360, 0.032191533, -0.013365655, -0.032302455, -0.026974875, -0.042059669, -0.030468130, -0.085997106, 0.149683963, 0.376799624, 
0.313853626, 0.377944516, 0.273748121, 0.379206861, 0.236280710, 0.037176089, 0.101545018, 0.077492601, -0.099889173, -0.094325681, 
-0.250683135, -0.373142933, -0.282200076, -0.114283868, 0.008299409, 0.022467014, 0.013418178, -0.025654106, 0.006882428, 0.027574734, 
-0.016691686, -0.015511904, -0.096299094, -0.257077840, -0.176221750, -0.169387551, -0.157298008, 0.244993044, 0.351881789, 0.418425534, 
0.461819616, 0.432241154, 0.416532142, 0.226373049, 0.066202949, -0.124216258, -0.181357205, -0.143556699, -0.331810995, -0.327445491, 
-0.295365074, -0.222762665, -0.079040883, -0.012735421, -0.024830929, -0.001493096, -0.043300643, -0.057943325, -0.030571662, -0.083699400, 
-0.083173962, -0.253428207, -0.122742286, -0.211362881, -0.301965728, -0.035084912, 0.057330568, 0.233919378, 0.378362609, 0.444669723, 
0.335465067, 0.069717916, -0.124832446, -0.112177686, -0.256092606, -0.235386184, -0.248477179, -0.205172662, -0.331161621, -0.279301185, 
-0.159525309, 0.005514143, -0.008942165, 0.014516052, -0.081456244, -0.131763725, -0.134477928, -0.173799930, -0.040288006, -0.228087041, 
-0.073043510, -0.087236895, -0.215441563, -0.272987617, -0.224891905, -0.178128319, 0.254992172, 0.208932946, -0.039512859, -0.134628726, 
-0.223487864, -0.165275975, -0.266865562, -0.333708718, -0.291737306, -0.254199358, -0.396301081, -0.354380598, -0.101590283, -0.019421896, 
0.004975385, 0.009763715, -0.087538314, -0.093034221, -0.131637471, -0.134035661, 0.105709341, 0.007952705, 0.023174308, -0.164485480, 
-0.189537779, -0.230216777, -0.293668771, -0.142984154, 0.012060982, -0.295970177, -0.114910360, -0.046735438, -0.068330297, -0.108323655, 
-0.192852382, -0.336222194, -0.250591645, -0.135374275, -0.368371143, -0.355296643, -0.123528854, 0.012153980, -0.001731563, 0.007579947, 
-0.035228703, -0.121738007, -0.036644819, 0.160472037, 0.247500739, 0.266960544, 0.150973077, -0.073093225, -0.067986566, -0.199405638, 
-0.229394550, 0.290638063, 0.224385396, -0.189588031, -0.156238798, 0.243296460, 0.299278738, 0.198433695, 0.320104995, 0.301946869, 
0.370962662, 0.360655145, 0.166563969, -0.178984817, -0.114538433, 0.017741473, 0.029629096, -0.022715979, -0.012670723, -0.044825513, 
0.098697191, 0.298184387, 0.280106742, 0.184089755, 0.028283982, 0.149939437, -0.157792735, -0.302941655, -0.343605080, 0.219798500, 
0.266241938, -0.034850029, 0.120472112, 0.433703225, 0.464988855, 0.480820317, 0.463402443, 0.452566758, 0.476291787, 0.495894687, 
0.362175890, -0.022690463, -0.041738512, -0.024087593, 0.032183328, -0.023276366, -0.050146061, 0.048401345, 0.019367561, 0.125515163, 
0.012887771, -0.098510237, -0.163098881, -0.066772619, -0.293039607, -0.519330778, -0.511233737, 0.110523491, 0.182540834, 0.181757478, 
0.138860650, 0.109312102, 0.293496004, 0.397215464, 0.250453437, 0.268953027, 0.316579171, 0.387617970, 0.256229869, -0.043526888, 
-0.000094061, 0.027885746, -0.011001160, -0.004969585, 0.028173705, 0.014972733, -0.081260750, -0.223305484, -0.192079376, -0.256984509, 
-0.221223174, -0.342820223, -0.233197330, -0.331443339, -0.370263501, 0.096504456, 0.074246684, -0.089280046, -0.184963431, -0.166223175, 
-0.077123649, -0.272509061, -0.142937428, 0.241361961, 0.149539531, 0.134679026, 0.117152123, -0.017084836, -0.007820434, 0.023582576, 
0.007106403, -0.027527257, 0.001142888, -0.011651235, -0.123604490, -0.161391031, -0.137051893, -0.296294643, -0.321867745, -0.279138777, 
-0.223412644, -0.123802114, -0.081426190, 0.074414149, -0.131688423, -0.165560527, -0.147245572, -0.234260832, -0.202386551, -0.344618067, 
0.125716889, 0.113564621, -0.037123227, -0.055788434, 0.031099311, -0.052411870, -0.053122495, -0.006554106, -0.016700951, -0.007816882, 
-0.007535139, -0.026182990, -0.090738469, -0.142019330, -0.121228237, -0.269472512, -0.218130538, -0.060753309, 0.107371373, 0.027272449, 
-0.041409871, 0.012894355, 0.006114077, -0.251966970, -0.265228724, -0.339756933, -0.309733847, -0.239165867, -0.167629740, -0.258300749, 
-0.105816653, -0.085787985, -0.046128018, -0.096347271, -0.051767468, -0.000901363, 0.030153962, -0.016088082, -0.020893698, -0.084837360, 
-0.162893157, -0.214810735, -0.244493734, -0.072967731, 0.005352856, 0.040139987, 0.130974715, 0.084844633, 0.147285013, -0.177211961, 
-0.192929948, -0.305286223, -0.394658938, -0.306379726, -0.379774370, -0.154197473, -0.321949031, -0.193199222, -0.049067466, -0.120706489, 
-0.122378771, -0.097431168, -0.034268231, -0.024610939, -0.002492506, 0.032636323, 0.032231233, -0.099538956, -0.186090014, -0.314975083, 
-0.252035388, -0.170439762, 0.190635001, 0.268939698, 0.342732967, 0.285565056, 0.019681048, -0.366750799, -0.415131880, -0.237993446, 
-0.175028079, 0.046068903, -0.051342117, 0.073437720, -0.124942466, -0.015594882, 0.061465257, -0.116405836, -0.132625433, -0.046253359, 
0.022863352, -0.031646086, -0.009771033, -0.021859730, -0.010915733, -0.040312757, -0.121499127, -0.079203627, -0.017324044, -0.126725450, 
0.138381137, 0.240105942, 0.211566086, 0.245773160, 0.305133501, -0.066003130, -0.043927080, 0.140203495, 0.229085750, 0.246437072, 
0.027552713, 0.129335179, 0.194839305, 0.248956270, 0.220088349, 0.051549246, -0.100160217, -0.038540457, -0.042322466, -0.008111010, 
-0.009267449, 0.018430114, -0.001508050, 0.000215114, 0.099387870, 0.216523713, 0.234301526, 0.226052732, 0.182204692, 0.229512854, 
0.327524796, 0.224500359, 0.415808973, 0.547515042, 0.479387359, 0.312835655, 0.316047054, 0.226445740, 0.052193719, 0.246161058, 
0.281496924, 0.253409107, 0.251562663, 0.112256636, 0.007220852, 0.029536293, -0.018731588, 0.002603350, 0.030923446, -0.015360237, 
0.030204659, 0.014594403, 0.108565960, 0.310469074, 0.292996113, 0.334469423, 0.175243964, 0.287694637, 0.265684325, 0.274838341, 
0.324629532, 0.431631846, 0.379192105, 0.236318374, 0.219533435, 0.253803966, 0.137514909, 0.179510281, 0.173507748, 0.132509351, 
0.210120146, 0.074900913, 0.023410405, -0.012313542, -0.000860946, -0.003330856, 0.026629356, 0.016385764, 0.038895552, 0.051004168, 
0.084873874, 0.327512613, 0.347826440, 0.291455933, 0.191483895, 0.205180571, 0.265751826, -0.039323933, 0.197233675, 0.186455999, 
0.125656642, -0.018111400, 0.195210112, 0.181583506, 0.112455097, 0.002828136, 0.059036065, 0.037047159, 0.093723649, 0.003241536, 
0.025166818, -0.021793816, -0.008604912, -0.003607699, -0.021548530, 0.025014532, 0.032856562, -0.011518220, 0.064048577, 0.123805126, 
0.208973136, 0.128805740, -0.023791294, -0.069320289, -0.030381261, -0.115905105, 0.068431665, -0.098798130, -0.057324242, -0.095834106, 
0.051006928, 0.066267926, 0.073998489, 0.036793005, -0.019180377, 0.073126308, 0.084926626, 0.028140494, 0.043740541, 0.008854561, 
-0.012369768, -0.014075807, 0.017861696, 0.016190875, 0.018213009, 0.012353662, 0.001855056, -0.093623711, -0.124879296, -0.043633682, 
-0.080881783, -0.079861014, -0.010561425, 0.016232532, 0.099444377, 0.088460709, 0.197429088, 0.131561521, 0.282645528, 0.150223859, 
0.188200426, 0.200359818, 0.202574063, 0.179112944, 0.106651502, 0.105138843, 0.010731256, 0.012397737, -0.032705022, 0.025820378, 
-0.006032846, -0.008901638, -0.020195783, -0.041781119, -0.079065253, -0.059561911, -0.031584198, 0.015265268, 0.027606942, 0.079524979, 
0.296553173, 0.291715665, 0.268617984, 0.270618027, 0.164010542, 0.243686354, 0.345204671, 0.201868223, 0.319338386, 0.362396153, 
0.347986809, 0.281554178, 0.118950939, 0.038486987, -0.017996687, 0.003107403, 0.000609398, -0.030899666, -0.014946974, 0.004877523, 
0.027718443, 0.013554206, 0.051103966, 0.003135896, 0.063174030, 0.012439752, 0.117547749, 0.220951733, 0.255217724, 0.317823545, 
0.326194118, 0.347824065, 0.329913361, 0.302572190, 0.338046048, 0.269324042, 0.268589479, 0.217266560, 0.131364705, 0.082314140, 
0.005779756, 0.028687469, 0.030712855, 0.006580263, -0.023763868, 0.029380906, -0.023386079, 0.012687327, 0.031242806, -0.004636268, 
-0.016895594, 0.026375240, -0.026351699, -0.023199013, 0.034211598, -0.018865031, 0.009513051, -0.009751782, 0.042934789, -0.033511315, 
0.066977064, -0.025020524, 0.039439686, -0.023162846, 0.019910559, -0.021354812, -0.006292888, 0.032964987, -0.032556943, -0.000944118, 
-0.022534787, -0.004918922, -0.012456717, -0.026393981, -0.883922642 },
{ -0.002431514, -0.029814001, -0.021872058, -0.023546370, -0.031329190, 0.007700166, -0.006866190, 0.027630344, 0.016480869, 0.006772234, 
0.027164177, 0.016721474, 0.023291108, 0.028996652, 0.016344433, 0.023894568, 0.003376604, 0.024739645, 0.005915371, 0.025372194, 
-0.017160203, 0.021628851, -0.008638253, -0.025282709, 0.026281294, 0.027591920, -0.014642176, -0.012143521, -0.018039069, -0.007636386, 
-0.010536771, 0.013846276, -0.004283594, 0.001714204, 0.023845286, -0.001115580, -0.011376933, 0.002894883, 0.005216613, 0.047796545, 
0.055125872, -0.008853291, 0.004523939, 0.028988959, -0.028313803, 0.001525652, 0.014483806, 0.021692336, -0.014041833, -0.022534319, 
0.010290064, -0.001554001, 0.029790900, -0.031602147, 0.006986984, 0.023219619, 0.028761241, 0.025805716, -0.022236214, -0.023153514, 
-0.015442612, 0.001424441, 0.039582458, 0.047433953, 0.033116011, 0.102399644, 0.052706449, 0.058851002, 0.161306602, 0.098124957, 
-0.017226342, 0.047412658, 0.102234741, 0.089493638, 0.118020478, 0.112504522, 0.094683601, 0.063040035, 0.067722634, -0.009353781, 
-0.027349749, -0.006430614, 0.016273690, -0.024051407, -0.001006271, -0.011279708, 0.031951051, -0.008214489, -0.006163993, -0.010346384, 
0.058002306, 0.052961409, 0.067501234, -0.056054723, -0.089456334, -0.110979367, -0.131751475, -0.265458468, -0.224913206, -0.142282276, 
-0.200522362, -0.128979530, 0.120024456, 0.158774698, 0.108601927, 0.151193901, 0.180617679, 0.111869096, 0.029518843, 0.014897749, 
0.027188153, 0.016388809, -0.023180403, 0.010134359, 0.024183198, 0.006978587, 0.031621624, 0.052387902, -0.041248769, -0.062574217, 
-0.150400291, -0.309087918, -0.337520872, -0.238001717, -0.182885044, -0.333296511, -0.307835007, -0.313300388, -0.221104704, -0.147346314, 
-0.149745572, 0.076872433, 0.162549677, 0.204621244, 0.221696792, 0.241842523, 0.114263119, 0.051081105, 0.002396183, -0.002496921, 
0.009517450, -0.005013318, -0.019846724, 0.003828630, -0.072442599, -0.123467661, -0.153957842, -0.109501539, -0.086406190, -0.198045695, 
-0.246122610, -0.017128737, -0.028000415, -0.279467681, -0.287734267, -0.346207767, -0.197089126, -0.143832170, -0.103277335, -0.003225542, 
0.093867394, 0.099263404, 0.244991411, 0.324727347, 0.189575430, 0.057811953, 0.007743754, -0.011156459, 0.002545683, -0.029172034, 
0.007694715, -0.077595521, -0.110085881, -0.241445853, -0.232588025, -0.111408841, -0.165296794, -0.160660127, -0.153402861, -0.139678569, 
-0.071021108, -0.318649616, -0.337417110, -0.289491088, -0.354340745, -0.189827056, -0.316720671, -0.174641661, -0.117054217, -0.200379681, 
0.181523179, 0.362385245, 0.379272221, 0.163006571, 0.069407593, -0.010401488, -0.029092433, -0.007784781, -0.039051976, -0.096120799, 
-0.180742515, -0.185095432, -0.166484184, -0.108645659, -0.153283183, -0.173367679, -0.168506919, -0.208275768, -0.227183448, -0.203366645, 
-0.315203366, -0.208784811, -0.239839989, -0.244280153, -0.133662855, -0.290359708, -0.162035975, -0.061562553, 0.127442855, 0.375243130, 
0.415930251, 0.176538103, 0.028219171, -0.025570685, -0.026069924, -0.031765428, -0.045336927, -0.108804929, -0.189344085, -0.120121388, 
-0.044229705, -0.129883790, -0.143246749, -0.107680297, -0.156428181, -0.291225763, -0.313476348, -0.268959380, -0.546272321, -0.519975905, 
-0.305727698, -0.360413052, -0.385726934, -0.212540454, -0.125077157, -0.026599104, 0.030973955, 0.358901775, 0.437108767, 0.248781816, 
0.089052480, 0.045885493, 0.008392333, -0.037253297, 0.000624644, -0.081473268, -0.172325928, -0.092084839, 0.191543689, 0.065315377, 
0.003829943, 0.074367562, -0.103797143, 0.059331818, 0.295594035, -0.080010402, -0.501169415, -0.646729152, -0.544908183, -0.486722260, 
-0.386846226, -0.217364785, -0.245233724, -0.016001990, 0.051445495, 0.301478690, 0.358784946, 0.282249190, 0.059467127, -0.028719899, 
0.015258046, -0.035677780, -0.015608352, -0.098170229, -0.065378987, 0.040713110, 0.215520267, 0.355695407, 0.304942375, 0.374798709, 
0.295103192, 0.456277025, 0.622170959, 0.581468162, 0.022021557, -0.452824809, -0.415560559, -0.321366887, -0.241635236, -0.205669563, 
-0.304058769, -0.148699145, -0.167612272, 0.077872937, 0.182333994, 0.168365739, 0.051836005, -0.023088971, 0.017217261, 0.019569961, 
-0.054702717, -0.077898614, 0.127937546, 0.348002626, 0.477162485, 0.559873118, 0.592160632, 0.505886400, 0.586650299, 0.564394972, 
0.636878895, 0.685734811, 0.529164031, 0.052586622, -0.071642922, -0.022753046, -0.251230060, -0.195314599, -0.222135441, -0.077865476, 
-0.074385321, -0.072374709, -0.055992998, 0.058864566, 0.019143382, -0.001876595, 0.008484786, -0.030733377, -0.021231774, -0.013659732, 
0.215724404, 0.478775189, 0.590332330, 0.583649178, 0.531240805, 0.500793343, 0.439494560, 0.454679467, 0.442783785, 0.545058181, 
0.583622829, 0.202827231, -0.058596031, 0.028597395, 0.003609751, -0.040077769, 0.036622177, 0.118002406, 0.208765518, 0.054857285, 
-0.147715969, -0.053646619, 0.020811647, 0.012405586, 0.024580646, -0.011849685, -0.035655822, 0.034536965, 0.218053949, 0.466499067, 
0.515167025, 0.443861387, 0.292775121, 0.294484355, 0.165576024, 0.251824887, 0.276265567, 0.336808980, 0.340451111, 0.424065560, 
0.116489677, 0.159312482, 0.131372028, 0.217723972, 0.168532809, 0.138447405, 0.103967119, 0.137716881, -0.021280355, -0.082872600, 
-0.044344858, -0.032676998, -0.001150175, -0.030597341, 0.017499370, 0.037176378, 0.068429655, 0.264558322, 0.317705904, 0.142684530, 
-0.050545578, -0.060569823, -0.096493980, 0.195740235, 0.185335501, 0.213589052, 0.365629531, 0.374191558, 0.092270111, 0.059599099, 
0.005274110, 0.169071059, 0.023611820, 0.044417937, 0.128480653, 0.068199812, 0.077536233, -0.097906193, -0.098243372, 0.006921008, 
-0.003955761, -0.013999221, 0.012283881, -0.011164071, -0.177468753, -0.195661796, 0.043530117, 0.042518287, -0.185379170, -0.115542202, 
0.018191916, 0.136711038, 0.135114474, 0.333060436, 0.244741152, 0.064397272, 0.046187927, 0.084645522, -0.023708748, 0.133502655, 
0.067972567, 0.112059468, -0.041953441, -0.042265811, -0.011926279, -0.145195041, -0.150742749, 0.002491363, -0.024534576, -0.011531434, 
-0.043081837, -0.161512639, -0.316817867, -0.290531875, -0.222139704, 0.015634154, 0.082426192, 0.000299093, 0.011527605, 0.120297538, 
0.225636980, 0.295299916, 0.395974368, 0.224530616, 0.149752100, 0.075664065, -0.072138285, -0.090844585, -0.001941840, -0.191152498, 
-0.205904508, -0.111520594, -0.167064722, -0.267495664, -0.181023523, -0.074509095, -0.003022069, 0.016156034, -0.024894848, -0.204958452, 
-0.327771674, -0.293457914, -0.256278124, -0.030591678, 0.014507477, 0.097465281, 0.090399231, 0.188916330, 0.337210952, 0.286380037, 
0.373769808, 0.072862178, 0.013906367, -0.056979411, -0.108234082, -0.083567953, -0.006467904, -0.063545455, -0.232649760, -0.220292629, 
-0.254336632, -0.280858668, -0.146231592, -0.057456132, 0.002827721, -0.021217106, -0.030668950, -0.220795474, -0.239846699, -0.261595911, 
-0.036295774, 0.002684145, 0.060311239, 0.091028809, 0.148374330, 0.275872920, 0.209047295, 0.030928179, 0.003365635, 0.042882055, 
-0.110501860, -0.096470979, -0.158917811, -0.141209230, 0.022032558, -0.038227477, -0.240733207, -0.249961865, -0.324210801, -0.219669689, 
-0.040009833, -0.012567896, 0.023520272, -0.005100155, 0.005278778, -0.167364690, -0.233629765, -0.256520147, -0.030979147, 0.027269821, 
0.016516013, -0.089883556, -0.111054892, -0.117067752, -0.024888100, -0.176881756, -0.118982167, -0.006037758, -0.022159028, -0.047198219, 
-0.131103004, 0.015953606, -0.056258069, -0.077070694, -0.212716677, -0.277367643, -0.276474386, -0.201612944, -0.087761620, -0.014206559, 
-0.021326317, -0.031659969, -0.000394556, -0.210895722, -0.352565140, -0.257215132, -0.194261883, -0.254721779, -0.146049689, -0.101449332, 
0.030308144, -0.175228278, -0.069100918, -0.113902934, -0.059419540, 0.059604845, 0.189959486, 0.161017974, -0.060863693, -0.054801381, 
-0.037182762, -0.097790997, -0.148808642, -0.213681277, -0.233244167, -0.136450483, -0.050170685, -0.032477314, -0.026362611, -0.006708479, 
-0.029407593, -0.159136503, -0.251757588, -0.205600587, -0.180008003, -0.038637210, -0.076957965, 0.111223044, 0.150210055, 0.065799022, 
-0.001119028, -0.021059729, 0.046934683, 0.151814028, 0.053723016, 0.114379036, 0.078525154, -0.031313545, 0.088636578, -0.017934052, 
-0.167393837, -0.154764577, -0.166197115, -0.139014849, -0.015173882, -0.004590787, 0.022653253, 0.004709968, -0.010449935, -0.067415127, 
-0.152063098, -0.245324794, -0.231472372, -0.203598641, -0.205919273, -0.146888058, 0.001897526, -0.010586544, 0.064534933, -0.004497936, 
-0.180491985, -0.153418473, 0.000345924, 0.071786554, 0.013917228, -0.016805226, -0.051215661, -0.078643947, -0.179985240, -0.097236350, 
-0.078575457, -0.041780604, -0.010731268, 0.005287371, -0.016305845, 0.018469413, -0.034593761, -0.069988607, -0.091217340, -0.183080800, 
-0.205425900, -0.192491747, 0.156104293, 0.072653741, 0.028139396, -0.002201723, 0.202295684, 0.123984911, 0.026271452, 0.025995899, 
0.149901297, 0.113551415, -0.066237244, 0.111391078, 0.199933292, 0.104326672, 0.091818311, 0.026299497, -0.032426291, 0.013583743, 
0.027574276, 0.002564884, 0.032453182, -0.010922499, -0.026408093, -0.038488558, -0.121119091, -0.176925242, -0.170960335, -0.056828924, 
0.113455004, 0.150208702, 0.081591115, -0.092539750, -0.111590944, -0.026278875, 0.131467510, 0.213482333, 0.171678731, 0.172872369, 
0.300920795, 0.337457918, 0.268713820, 0.177826255, 0.088909953, 0.091412820, 0.022154994, -0.040352207, -0.017242432, -0.026838494, 
0.024485951, -0.013197783, 0.009832037, 0.043639646, -0.042132128, -0.068920480, -0.038344387, 0.031516829, 0.008632105, -0.112295303, 
-0.135214682, -0.075528498, -0.008087355, -0.047502154, -0.105793399, -0.027357569, 0.118416460, 0.126544669, 0.199598822, 0.268427190, 
0.200697097, 0.124483421, 0.073381427, 0.059946920, 0.002977321, -0.026260051, 0.005590207, -0.019015807, -0.015919720, 0.032612781, 
-0.012650162, -0.024560058, -0.013347529, 0.034405688, 0.027872670, -0.003108254, -0.038259970, -0.105506343, -0.113353682, -0.039207120, 
-0.005074532, -0.024115406, -0.056164847, -0.134248266, -0.027409801, -0.057243659, 0.002465636, 0.030144480, 0.073192484, 0.051994624, 
-0.012427030, -0.018955516, 0.006628168, -0.023391911, -0.029803677, -0.030348425, -0.011930245, 0.014739582, -0.016433078, 0.006691643, 
0.014592587, 0.004949661, 0.013506723, -0.036308859, -0.004364776, 0.016443402, 0.022396206, -0.027010993, 0.006889006, -0.007866341, 
-0.011711217, -0.038722185, -0.011234010, -0.001051006, 0.020177956, -0.000354510, -0.021465636, 0.030374297, 0.031139082, 0.018438265, 
0.020871045, -0.015543453, -0.032563772, -0.006805100, 0.010349168 },
{ -0.029618242, -0.004052119, 0.017252638, 0.018125036, 0.013946600, -0.010559617, -0.001543292, -0.015153453, -0.028083433, -0.000209830, 
0.020700098, 0.020264249, -0.001877246, -0.031172362, 0.009289865, -0.021991784, 0.020704295, -0.029638238, 0.021262784, 0.005604713, 
0.027756456, -0.008577651, 0.007774036, 0.017521116, -0.012565960, -0.007124922, 0.004614345, 0.006431581, -0.006915855, 0.030837936, 
-0.031747818, -0.003326072, -0.006249142, 0.018331851, -0.019170172, -0.025835114, -0.024879232, 0.013698351, -0.007290276, -0.021158932, 
-0.022027785, -0.022011452, 0.030042268, 0.009189612, -0.021377506, 0.007386401, 0.022325911, -0.030833399, 0.012147049, 0.010406895, 
0.007573434, 0.006714606, -0.030694607, -0.018897531, -0.010259021, -0.010279867, 0.008411710, 0.027743439, 0.029334467, -0.031429846, 
0.025782994, 0.030307135, -0.004041998, -0.020824543, 0.002334652, 0.007531013, 0.004807856, 0.016545763, -0.061212605, -0.070659842, 
-0.150958602, -0.114614608, -0.123223897, -0.096829734, -0.026741237, 0.058660527, 0.041844786, -0.017680729, -0.008299845, -0.016064701, 
0.017121426, 0.024751685, 0.028697625, 0.019457699, -0.027128137, -0.014720911, -0.024209963, 0.014684728, -0.020338073, -0.019633830, 
0.027211912, -0.013396829, 0.029791594, 0.091635255, 0.168001794, 0.224252192, 0.308143672, 0.282989772, 0.204847128, 0.130696832, 
0.166613597, 0.002876567, -0.039668493, 0.027014747, 0.105550253, 0.133618094, 0.077760050, -0.069698226, -0.035068675, -0.034886305, 
0.013221784, 0.031681566, 0.030409823, 0.008729824, 0.018401109, -0.024154270, 0.039940280, 0.063870260, 0.090303733, 0.116562964, 
0.232423645, 0.275835589, 0.183181105, 0.258781511, 0.244771258, 0.182117035, 0.117139254, 0.104932720, 0.020258315, 0.053433864, 
0.225095462, 0.136111603, 0.065179605, 0.272735274, 0.146163553, 0.189648253, 0.212244881, 0.055444458, -0.007868245, -0.023530196, 
0.001406548, 0.021851677, -0.024738347, 0.033054962, 0.054165200, 0.110207641, 0.115939046, 0.182280176, 0.290981371, 0.239109030, 
0.265457853, 0.310438063, 0.115096745, 0.150941555, 0.180924220, 0.182239296, -0.026725418, -0.005230036, 0.258146721, 0.062725300, 
0.111007442, 0.135346567, 0.237103161, 0.246498240, 0.328283240, 0.133793575, 0.037054527, 0.016069314, 0.012217112, -0.029205951, 
0.037511028, 0.041789484, 0.087814419, 0.083433798, 0.118573792, 0.092879558, 0.278132403, 0.248575912, 0.231823815, 0.216046905, 
0.273896635, 0.243351609, 0.171620123, 0.006373280, 0.099526848, 0.146902011, 0.298775379, 0.203547745, 0.186390616, 0.300713830, 
0.229777947, 0.224703888, 0.368592268, 0.217305770, 0.073208235, 0.027973771, 0.012001659, -0.024008195, 0.006732093, 0.049345187, 
0.091337637, 0.036039279, 0.123825862, 0.118241751, 0.108236736, 0.122010681, 0.153629226, 0.269973338, 0.345091147, 0.233104555, 
0.254348410, 0.094134645, 0.235215952, 0.283296554, 0.206568971, 0.245087116, 0.250371600, 0.109778627, 0.086026564, 0.138610916, 
0.279979928, 0.252179206, 0.143245649, -0.025761359, -0.005906630, -0.015164987, 0.029187893, 0.005400107, 0.114793485, -0.015624127, 
0.021138099, 0.042154432, -0.012120405, 0.085389620, 0.083363348, 0.172906707, 0.172860176, 0.120479268, 0.343056286, 0.225305411, 
0.180308980, 0.253209681, 0.195775563, -0.031917861, -0.002276780, 0.050833563, -0.036587345, 0.058983248, 0.282621443, 0.304144910, 
0.143082869, 0.065211094, 0.010732163, -0.024665208, 0.066598256, 0.043846564, 0.139888713, 0.043531788, -0.099773254, -0.034106019, 
-0.160959659, -0.122626742, -0.136770124, 0.001573242, -0.088990485, -0.074279394, -0.030524463, 0.062516739, -0.131912639, -0.023858976, 
-0.275308468, -0.319456381, -0.143773626, -0.237425657, -0.320917477, -0.171453785, 0.205346822, 0.233220595, 0.079313770, 0.042770478, 
-0.019790550, -0.013265245, 0.063957986, 0.149341021, 0.153363944, 0.084092637, 0.025011474, -0.223727771, -0.171654208, -0.246811135, 
-0.383145398, -0.418455406, -0.377443863, -0.258455465, -0.333502998, -0.270445656, -0.124509602, -0.188727175, -0.371154757, -0.544448426, 
-0.324914336, -0.402567829, -0.484448575, -0.318320835, 0.018019518, 0.134032932, 0.083958617, 0.005835018, 0.022328097, -0.024559854, 
0.024661335, 0.120016346, 0.123614523, -0.015482212, -0.143620815, -0.397456245, -0.369750215, -0.345161170, -0.397896367, -0.336323018, 
-0.343891103, -0.300916506, -0.341699440, -0.179710747, 0.027952570, -0.048298452, 0.024687528, -0.258413104, -0.423472165, -0.487407030, 
-0.542007896, -0.440370887, -0.157365018, 0.060355293, 0.065718650, -0.005658632, 0.020800353, 0.009073355, 0.045152713, 0.086458404, 
0.072653273, -0.000729192, -0.250920686, -0.407674498, -0.238801335, -0.332024896, -0.089023670, -0.169875932, -0.187679960, -0.231023276, 
-0.411990794, -0.221313986, 0.085758440, 0.129351560, 0.199061652, -0.084026533, -0.217045497, -0.416385021, -0.514984264, -0.470203364, 
-0.230200932, -0.040768858, 0.005300196, 0.020986346, 0.028925169, -0.015887894, 0.000437681, 0.039621510, 0.047677962, 0.073142046, 
-0.148517536, -0.291596403, -0.188014199, -0.237591561, -0.187871398, -0.119343219, -0.153116946, -0.194604848, -0.360221869, -0.417577247, 
-0.109548264, 0.029388350, 0.065432441, 0.056820407, -0.167576085, -0.321452880, -0.395865723, -0.414569740, -0.216303641, -0.034874958, 
0.011758772, 0.013159889, -0.031065119, -0.019253936, 0.012261744, 0.039517876, 0.013465179, 0.021798704, -0.127366094, -0.292751814, 
-0.083667459, -0.123869262, -0.184690927, -0.256612837, -0.191481340, -0.157065196, -0.198537345, -0.280038440, -0.233501786, -0.096813152, 
-0.031426511, -0.076872167, 0.019432012, -0.193194178, -0.326591969, -0.277281108, -0.189349439, -0.019986281, -0.024922784, -0.022855565, 
-0.005459827, 0.019929573, 0.025820722, -0.007755349, 0.059568412, -0.034503278, -0.235779901, -0.366777772, -0.095602524, -0.163596398, 
-0.132584527, 0.028681051, -0.073067463, -0.236959282, -0.238329045, -0.169975571, -0.296025578, -0.172654906, 0.091826256, 0.043253555, 
0.140095543, -0.026873041, -0.288437654, -0.183557523, -0.128645769, -0.040626563, 0.010263002, 0.016848717, -0.021721862, 0.006220002, 
0.034127475, 0.060169918, 0.088371008, -0.099946025, -0.480018336, -0.531747619, -0.558008486, -0.368620847, -0.051859419, -0.053918031, 
0.105790186, -0.077692867, -0.317544746, -0.283513009, -0.353912476, -0.088789999, 0.082164190, 0.126561508, -0.015472829, 0.007082219, 
-0.004342114, -0.060830338, -0.037687846, -0.014977022, -0.000164499, -0.001121006, 0.017373015, 0.026181022, -0.023409910, 0.101012383, 
0.174350507, -0.031854125, -0.401267818, -0.619874108, -0.666514746, -0.623089333, -0.530453687, -0.521102005, -0.440063506, -0.330520421, 
-0.535881312, -0.365718574, -0.290596787, 0.021430438, -0.029216618, -0.021421802, 0.011524925, 0.040483433, 0.026613693, 0.041515976, 
0.047069298, 0.007699391, -0.008487868, 0.026655917, 0.026071956, 0.015139008, -0.008141285, 0.105127697, 0.200914918, 0.113045217, 
-0.181402447, -0.488408200, -0.597743501, -0.641471043, -0.694646308, -0.738022308, -0.581112507, -0.553381187, -0.469608103, -0.191142808, 
0.066872485, 0.060134805, 0.008850964, -0.107541548, 0.087540302, 0.207634950, 0.154627935, 0.156456428, 0.054553508, 0.015061607, 
-0.003835018, -0.010197434, -0.029012942, 0.017791997, 0.005259127, 0.161788591, 0.178571724, 0.132097202, 0.017320536, -0.208294196, 
-0.274885803, -0.398411371, -0.461082379, -0.506030078, -0.485907604, -0.261413184, -0.049709833, 0.306112254, 0.262980132, 0.109341373, 
0.199594432, 0.133112158, 0.132255362, 0.295524493, 0.170288219, 0.175885917, 0.122549865, -0.012293632, 0.018912118, -0.013605896, 
0.007927840, -0.014929238, 0.036433401, 0.154320858, 0.163987945, 0.079041036, 0.124448591, 0.102370299, 0.126044411, -0.032912813, 
-0.020487496, 0.238774194, 0.064748470, 0.367173762, 0.337817665, 0.302146604, 0.278260232, 0.255046643, 0.167214216, 0.325526461, 
0.244942340, 0.357929014, 0.215028614, 0.167474097, 0.048397191, 0.019188151, 0.020172490, 0.029873644, 0.002983490, 0.010368410, 
0.020092435, 0.118567832, 0.213067227, 0.083691214, 0.189876756, 0.178035780, 0.455930217, 0.298950238, 0.357830769, 0.414859356, 
0.343236782, 0.314480711, 0.224128701, 0.111426089, 0.286716693, 0.174894881, 0.383511709, 0.296018801, 0.335669432, 0.378544297, 
0.277564341, 0.247503680, 0.027635946, 0.024442361, 0.023722251, -0.023717788, 0.028158774, 0.016593526, -0.013609572, 0.094039162, 
0.167007489, 0.072739842, 0.075752931, 0.008458722, 0.254475978, 0.292355998, 0.307058443, 0.332031517, 0.178192128, 0.056894892, 
0.057007707, -0.026223241, 0.141946871, 0.097473060, 0.223197102, 0.263698359, 0.378183869, 0.185657484, 0.305393485, 0.203217147, 
0.038194565, 0.029898603, -0.027192913, 0.027969279, -0.007717362, -0.029123127, -0.023510838, 0.075088420, 0.187458846, 0.192213646, 
0.240424420, 0.139737875, 0.066448241, 0.212659422, 0.228348453, 0.078191264, -0.074547687, 0.047996780, -0.039223251, -0.094246672, 
-0.099023392, -0.060794928, -0.074058258, 0.012120475, -0.022118385, 0.086018943, 0.169590371, 0.090196123, 0.008756613, 0.021603058, 
0.023443368, 0.004920068, 0.019420625, 0.032488002, 0.001155934, 0.046696504, 0.109833593, 0.203713723, 0.275784085, 0.344020638, 
0.288882853, 0.352060605, 0.348004608, 0.255147233, 0.278725730, 0.257312801, 0.146571158, 0.102610977, -0.093936458, 0.033841704, 
-0.009561313, -0.125471332, -0.079094418, 0.064796959, 0.094319115, 0.001731006, -0.008483493, 0.027030588, 0.009983627, 0.031779398, 
0.015133365, -0.000541846, 0.003816626, 0.003894167, 0.026742837, 0.025855228, 0.100178232, 0.209713325, 0.313131845, 0.398193035, 
0.430443042, 0.437136867, 0.401594546, 0.284691040, 0.234845221, 0.214501441, 0.149909893, 0.069238245, 0.093924974, 0.058214678, 
0.025676011, 0.081081352, 0.067341825, 0.024753655, 0.002445648, 0.026454058, 0.011961519, 0.020575084, 0.020592570, -0.012699776, 
0.019542421, 0.001753734, 0.021973715, -0.005924693, -0.016120113, 0.021381790, 0.019230625, 0.064128076, 0.129419017, 0.165512448, 
0.173242511, 0.115874469, 0.125146039, 0.100645687, 0.113803928, 0.109856528, 0.075385460, 0.073405658, 0.039963613, 0.023712539, 
0.001204230, 0.009448255, -0.029929892, -0.004234867, -0.025355534, 0.003563724, -0.011154157, 0.019922073, -0.010129924, -0.023914930, 
-0.026011458, -0.023549141, 0.013599613, 0.031242113, 0.003195227, 0.020096045, 0.005011544, 0.042530188, 0.016559599, -0.007397110, 
0.052805617, 0.009402690, 0.003201765, -0.004689539, 0.023246341, 0.041178626, -0.021092218, -0.027091900, 0.016323407, 0.001170782, 
-0.021243905, 0.018532934, -0.025454481, -0.018250547, 0.394347134 },
{ -0.017761635, 0.019182760, 0.003642240, -0.030730718, -0.024339257, 0.013447234, -0.023920459, -0.015167491, -0.009533508, -0.028978729, 
0.017931464, -0.028953183, -0.020071064, -0.001505790, -0.001770622, -0.011573036, -0.000310241, 0.018638181, 0.009071233, 0.012406586, 
-0.006789487, 0.008348615, 0.017309413, -0.001166490, -0.012984490, -0.016640215, 0.011719441, -0.027609735, -0.008681988, 0.026709706, 
-0.014008992, 0.008054584, 0.012679480, 0.023364714, 0.008452625, 0.015731703, -0.025317041, 0.004296082, -0.056725906, -0.013448501, 
-0.032579812, -0.029164246, 0.014484536, -0.029003408, -0.020636580, -0.014628771, -0.004228214, 0.031917287, -0.021801633, -0.028794765, 
0.007461305, 0.004470568, 0.014706101, -0.005289408, -0.026343927, -0.031183687, 0.012552120, 0.018632473, -0.026005268, -0.029357169, 
0.012162278, -0.006562167, 0.002270476, -0.054892959, -0.095171494, -0.122907280, -0.168513014, -0.144892682, -0.217493665, -0.253679775, 
-0.205777616, -0.154836261, -0.168333958, -0.127822967, -0.089035834, 0.024573920, -0.020399884, -0.012245083, -0.007318844, -0.026905278, 
0.005134082, -0.016307265, 0.030060383, -0.008989967, 0.015454491, -0.029084294, -0.007225006, -0.006759770, 0.026205910, 0.001610811, 
-0.011965056, -0.070344020, -0.118623450, -0.232799982, -0.189615163, -0.166728262, -0.119515086, -0.252855626, -0.219265639, -0.250794493, 
-0.260688208, -0.214961948, -0.024832600, -0.100290156, -0.120675866, 0.020187521, -0.017999633, -0.073764348, -0.074570307, 0.011024188, 
0.007043728, 0.023846666, -0.030789850, 0.017241793, -0.018270476, 0.019009604, 0.043781607, 0.105846915, 0.060777065, -0.024392818, 
-0.119573481, -0.046934609, 0.009062339, 0.159292911, 0.228324689, 0.015124560, 0.135637372, 0.108851782, -0.038394951, -0.075147048, 
0.214637682, -0.007732118, 0.014253983, 0.089267498, 0.031191676, -0.022375038, 0.125555733, 0.069830146, 0.031312525, -0.022624818, 
0.013442129, -0.003578340, -0.031376932, 0.030485635, 0.084620292, 0.177684725, 0.061890176, -0.034527605, -0.030553071, 0.138986584, 
0.161981412, 0.200743695, 0.032960347, 0.008203448, -0.117902510, 0.019845821, 0.045739482, -0.190095806, 0.024180070, 0.087554336, 
0.038167091, -0.047933034, 0.100028836, 0.177212155, 0.227341713, 0.092345163, 0.015639541, -0.010129037, -0.025562806, -0.024185629, 
0.001409582, 0.067308820, 0.084902914, 0.207329193, 0.089467931, -0.047589413, 0.034244857, 0.190793733, 0.173440149, 0.252478967, 
0.217578207, 0.132362474, -0.020139553, -0.016851493, 0.008663840, -0.027221910, -0.123474806, 0.100220301, 0.183510378, 0.073604712, 
0.108377939, 0.295205496, 0.438774235, 0.304771610, 0.159236304, 0.027384125, -0.003933797, -0.019449184, -0.057409283, 0.081691670, 
0.108017412, 0.129639098, 0.094085932, 0.074044709, -0.017659619, 0.195746354, -0.002941453, 0.057850337, 0.175731887, 0.116986225, 
-0.024848242, -0.051271673, -0.008323420, 0.014792267, -0.027307423, 0.115632296, 0.318188058, 0.185854537, 0.144752976, 0.375372632, 
0.479471374, 0.331499184, 0.145886106, -0.010313094, 0.005448961, 0.019389562, 0.019499239, 0.070360173, 0.089687373, 0.098682533, 
0.193615555, 0.162300515, -0.007114386, 0.176840622, 0.027099788, -0.157231690, 0.175167276, 0.144436874, 0.073639679, -0.111771931, 
-0.168001808, -0.143354489, 0.024075064, 0.146065298, 0.229486943, 0.183018087, 0.234351875, 0.257798544, 0.487535362, 0.415922775, 
0.161332036, 0.021948809, -0.018172924, -0.013775831, 0.030304611, 0.103822273, 0.060681190, 0.017226688, 0.188918087, 0.140709593, 
-0.008610787, 0.183295179, 0.067321515, 0.090673612, -0.113242700, -0.011537029, -0.034295529, -0.016970572, -0.219449503, -0.055816585, 
0.055331727, 0.051942231, 0.185779371, 0.274711626, 0.225330888, 0.034302657, 0.391193968, 0.457693932, 0.149551636, -0.002333017, 
0.011372605, -0.001042479, 0.012934709, 0.089151195, 0.210701191, 0.105607624, 0.231545652, 0.200416600, 0.121898835, 0.324785744, 
0.265264201, 0.185263794, 0.215523498, 0.334124056, 0.290011609, 0.087249713, 0.150557589, 0.052196226, 0.010108114, -0.044518593, 
0.021550596, 0.118300922, -0.024972969, -0.124142360, 0.194268696, 0.416507222, 0.175797902, 0.056111736, 0.031854961, -0.020542621, 
0.031217000, 0.070038275, 0.188214638, 0.188307063, 0.326316351, 0.214446803, 0.231968686, 0.330552274, 0.404891443, 0.280498633, 
0.399601311, 0.553908171, 0.609520636, 0.432588896, 0.270168386, 0.376271288, 0.180373953, -0.032251887, -0.050108521, -0.166120544, 
-0.300861697, -0.371554318, -0.193229631, 0.243050498, 0.096299433, 0.043796416, 0.004373100, 0.023149821, 0.017746311, 0.060522847, 
0.132354539, 0.243011742, 0.312007168, 0.255286018, 0.249131958, 0.317779188, 0.396564057, 0.320193696, 0.377981565, 0.451590057, 
0.533660192, 0.403446631, 0.297422037, 0.133375976, 0.189257849, 0.180939195, -0.112065887, -0.372829398, -0.460575717, -0.533199155, 
-0.447074424, -0.065871260, 0.000596444, -0.005242016, 0.025143513, -0.005260627, -0.011236770, 0.037897183, 0.125413061, 0.168913871, 
0.175537416, 0.058086273, 0.196087592, 0.176783101, 0.157280185, 0.268040326, 0.348825630, 0.406539950, 0.350171179, 0.391996218, 
0.412084636, 0.287459638, 0.232490341, 0.109024211, -0.101005775, -0.344980924, -0.489424809, -0.554807941, -0.434504433, -0.094894589, 
0.014836104, -0.032903691, -0.009948920, -0.019963737, -0.003578640, 0.006274592, 0.023171863, -0.048391067, -0.237124985, -0.294685365, 
-0.108564525, -0.097576220, -0.104413983, -0.063071559, 0.203447110, 0.344291631, 0.315933881, 0.164100395, 0.273556708, 0.356728740, 
-0.040970672, -0.046681943, -0.144807666, -0.190919809, -0.356707653, -0.350732800, -0.259986354, -0.007953392, -0.018711281, -0.022870996, 
0.018222363, -0.018720745, -0.014161517, -0.041322300, -0.110474818, -0.396831776, -0.426750638, -0.419839506, -0.359870986, -0.222212842, 
-0.222713758, -0.141590271, 0.213998751, 0.326112609, 0.138240698, 0.157846177, 0.154501374, 0.213950666, -0.084175083, -0.113384274, 
0.016232150, -0.103158663, -0.117612925, -0.122309537, -0.191881418, -0.044202402, 0.001540359, -0.016488467, 0.000568054, -0.018732517, 
0.018316198, -0.029770462, -0.148962031, -0.324894401, -0.442857308, -0.352427786, -0.407986397, -0.479029054, -0.456860203, -0.408776036, 
0.113158998, 0.174339115, 0.047522622, 0.084888400, -0.062087296, 0.113053484, -0.023038124, -0.099559077, -0.124255452, 0.010077274, 
0.038916079, 0.029323585, -0.148669951, -0.187155240, -0.106221292, 0.003537412, 0.000787362, -0.027939311, -0.020840104, -0.033715312, 
-0.079015257, -0.090672691, -0.152213158, -0.326682479, -0.370214118, -0.536649487, -0.626938113, -0.635655718, -0.518079275, -0.203927605, 
-0.046002126, 0.150757688, 0.065432569, -0.126364232, -0.149868980, -0.111405500, -0.114502781, -0.039998851, -0.099180287, 0.001480335, 
-0.207048691, -0.293007814, -0.079057039, -0.024185740, -0.029112153, 0.020050527, 0.006968523, 0.101826049, 0.052886604, 0.087148459, 
0.179086774, -0.078142861, -0.215458228, -0.393933364, -0.545394900, -0.602219673, -0.570952569, -0.097346778, 0.246491681, 0.229778498, 
-0.019663952, -0.143732958, -0.205738945, -0.197321840, 0.059905109, -0.103316124, -0.142128474, -0.140223257, -0.237871447, -0.253940211, 
-0.038053365, 0.010801104, -0.026861034, -0.036349642, 0.039858154, 0.176732016, 0.039491904, -0.020111663, 0.073657119, 0.127030507, 
0.006718330, -0.103240118, -0.313461958, -0.570875713, -0.554358245, -0.043870518, 0.271768485, 0.339535847, 0.032386945, -0.085916045, 
-0.003811558, 0.007484442, 0.030031464, 0.007075331, -0.032405066, -0.087070480, -0.188883703, -0.135553694, -0.052421039, 0.017456045, 
-0.019757386, -0.001525984, -0.003036271, 0.101956201, -0.059680246, -0.259494254, -0.066820720, -0.196260455, 0.003132761, -0.065629800, 
-0.419954633, -0.587716758, -0.590381415, -0.243726326, 0.166709717, 0.138262637, -0.022195576, 0.046796532, -0.064530184, -0.179992371, 
-0.105548312, 0.000484958, 0.000534092, -0.158471772, -0.199885651, -0.093814631, -0.009605661, -0.007025300, 0.009387401, 0.006963745, 
-0.001699506, 0.094024598, 0.067167871, -0.201342053, 0.027179881, 0.048563184, 0.096981500, -0.182490717, -0.403229297, -0.473306883, 
-0.345684135, -0.160008719, 0.078333188, 0.146273045, 0.134014835, -0.131470079, -0.271127036, -0.322956682, -0.083064141, -0.119144397, 
-0.211038066, -0.229095247, -0.147088016, -0.085623806, 0.010229980, -0.029448078, 0.014710983, -0.011003953, -0.004217967, -0.001420252, 
0.059239924, -0.108661000, -0.160202745, -0.226044263, -0.224891574, -0.303011188, -0.234845441, -0.231984308, -0.274764771, -0.073760797, 
0.144354482, 0.195997533, 0.113321331, 0.029534700, 0.016914050, -0.074877614, -0.175461856, -0.266220152, -0.246710714, -0.167614372, 
-0.110538845, -0.057271630, 0.022774110, -0.022611777, -0.001247858, 0.012679571, -0.018238637, 0.041065350, 0.114020521, 0.128306982, 
-0.106535591, -0.155815688, -0.194855522, -0.248747906, -0.257726320, -0.258208747, -0.202180825, -0.083770845, 0.053196903, 0.181153096, 
0.201905833, 0.200648846, 0.049030367, -0.053820487, -0.074092621, -0.064063376, -0.161824588, -0.069217903, -0.047259182, -0.036113084, 
0.003151687, -0.017303012, 0.003823454, -0.007873473, -0.001738582, 0.009738275, 0.073045821, 0.166079355, 0.144769639, 0.080340160, 
0.017618794, 0.012141279, -0.133938584, -0.152377642, -0.196923472, 0.027304489, 0.071908910, 0.232777645, 0.255995561, 0.237807980, 
0.204897149, 0.154469569, 0.125564833, 0.078841817, 0.001197626, 0.015748073, -0.067067935, -0.050995747, -0.009903522, 0.029855081, 
0.000819295, -0.030285147, -0.019978240, -0.024296063, 0.034136556, 0.062755442, 0.054492971, 0.159841533, 0.206258564, 0.278033185, 
0.315666918, 0.294597519, 0.328523397, 0.320621820, 0.297910870, 0.314011059, 0.305296761, 0.226955549, 0.187881449, 0.145245318, 
0.052512214, 0.071758272, 0.051083819, 0.018342681, -0.015382582, 0.016846152, -0.024670604, -0.010736425, -0.028846004, 0.020922913, 
-0.013935375, 0.005332633, 0.023603930, 0.010033078, 0.019276584, 0.007219579, 0.013415090, 0.066330967, 0.065970327, 0.055178612, 
0.060218498, 0.106703405, 0.134511538, 0.060141168, 0.055469224, 0.039068650, 0.047622843, 0.023296411, -0.017160318, -0.022331405, 
-0.011959682, -0.013461603, 0.023205697, 0.028664089, 0.018213587, -0.030851123, 0.021491226, -0.028721391, -0.008604573, 0.025548074, 
0.025119139, 0.012071621, -0.002652712, 0.015812746, -0.022053217, -0.022210202, -0.026111600, -0.010115207, 0.028167545, 0.025826630, 
0.013667738, 0.031192844, -0.020926979, 0.000766327, -0.025450045, -0.021291249, 0.000000994, 0.030712918, 0.040475615, 0.018547775, 
0.029673597, -0.025900205, -0.031465667, 0.019836008, 0.253828966 },
{ 0.019588572, 0.021846612, 0.024285135, 0.023814474, -0.020275641, 0.016745043, 0.015804437, 0.025085074, -0.020114891, -0.003090586, 
-0.029956031, -0.013599616, 0.004434509, 0.004183310, -0.022923704, -0.017577176, 0.029381619, -0.028676568, -0.007324307, -0.003456728, 
-0.021714237, 0.005351250, 0.030755898, -0.026437466, -0.000426023, 0.013878868, -0.029564288, 0.007415139, 0.015285459, 0.023188000, 
0.010421697, 0.000810382, 0.011712395, 0.000938654, -0.007540160, 0.028414929, 0.047484087, 0.022379196, 0.051347299, 0.036953511, 
0.078449974, 0.060280281, 0.024624438, -0.008942706, 0.001612928, 0.044515845, -0.007144002, -0.020722274, 0.048710176, 0.041934942, 
0.037610592, -0.018924248, -0.018582162, -0.001672117, -0.016604833, 0.015167239, -0.021729993, -0.013133133, -0.011954436, 0.027223038, 
-0.020900775, 0.031480370, -0.000928796, 0.037990217, 0.082843286, 0.129064873, 0.140573934, 0.134813483, 0.198583122, 0.177324865, 
0.137754166, 0.114332809, 0.116381618, 0.158247954, 0.132812957, 0.100361157, 0.134427342, 0.110203934, 0.089830106, 0.070080564, 
-0.012188361, 0.022088273, -0.032235908, 0.005305260, -0.007941030, -0.016048206, -0.013942300, 0.006351075, 0.010992451, 0.025515061, 
0.037112632, 0.090273880, 0.161375587, 0.212955021, 0.232708883, 0.259359026, 0.350731504, 0.418192778, 0.417192711, 0.380972546, 
0.367107883, 0.374952161, 0.371202653, 0.316745672, 0.290666190, 0.228707456, 0.180124594, 0.130563049, -0.010830217, 0.006265290, 
0.017062799, -0.003736073, 0.004667649, 0.017261926, -0.031357463, 0.028648049, -0.031661982, -0.007915305, 0.052460975, 0.119873697, 
0.101849454, 0.131243980, 0.160907298, 0.004255102, 0.012305497, 0.051419913, 0.020653824, -0.080080528, 0.078425854, 0.164465547, 
0.162450375, 0.178256476, 0.089426596, -0.023715430, 0.028096418, -0.044116571, -0.067318083, 0.015542723, -0.010955507, 0.000320832, 
0.009386006, -0.023299672, 0.029684874, -0.032546226, 0.014464640, -0.004803602, -0.018241845, 0.050735898, -0.054863897, -0.017475412, 
-0.105526122, -0.349098118, -0.329865844, -0.412239488, -0.586626295, -0.711548792, -0.670698377, -0.527056515, -0.441802145, -0.357066909, 
-0.352556252, -0.309686652, -0.310583676, -0.299908083, -0.207209027, -0.072114581, 0.019335647, -0.001242435, -0.009891784, -0.013387491, 
0.027008578, 0.013820091, -0.050280828, -0.009293976, 0.025168952, 0.088139761, 0.028347849, -0.077201391, -0.010751713, -0.039511914, 
0.010586576, -0.141704948, -0.163926300, 0.038017668, -0.008356503, -0.064166166, -0.026647543, -0.139892975, -0.258827860, -0.319737994, 
-0.463995884, -0.492257575, -0.354919095, -0.201853211, -0.049098374, -0.015783776, -0.016565443, 0.018748757, 0.027385991, 0.015808507, 
-0.024805275, -0.019845775, 0.022369783, 0.108947253, 0.108376313, 0.203818859, 0.216999612, 0.222394750, 0.167346056, 0.206626077, 
0.307163595, 0.353502869, 0.343880950, 0.320065389, 0.115632798, -0.109378579, -0.226225504, -0.213801981, -0.388566869, -0.461441467, 
-0.431462489, -0.270834029, -0.091608240, -0.007816701, -0.025955510, 0.015829829, 0.051984611, 0.053120843, 0.052462298, 0.020502024, 
-0.056078121, -0.030670199, 0.061475166, -0.020591619, 0.140187790, 0.218880087, 0.265139433, 0.252575932, 0.334675110, 0.352115833, 
0.199298256, -0.005203450, -0.249203886, -0.155318410, -0.232796007, -0.144951445, -0.175166422, -0.315754375, -0.433841107, -0.315305956, 
-0.130817172, -0.004625915, 0.030919162, 0.025785515, 0.029513906, 0.078031260, 0.173774526, 0.160855876, 0.101743347, -0.036411576, 
0.173892434, 0.050171172, 0.147692051, 0.184358197, 0.425350085, 0.396999499, 0.475548002, 0.232250656, -0.155772789, -0.151792773, 
-0.278688521, -0.004471111, -0.157741537, -0.137963653, -0.214820072, -0.337165175, -0.396251168, -0.343156445, -0.109191535, 0.011772614, 
0.028844946, 0.005180759, 0.080369099, 0.136498860, 0.166780699, 0.241083145, 0.171462954, -0.089824465, 0.241993973, 0.227956350, 
0.276991024, 0.389281158, 0.270080860, 0.458229183, 0.401152738, 0.082996973, -0.115821348, -0.242098265, -0.126573062, -0.146255848, 
-0.042142014, -0.123521707, -0.184486534, -0.162140179, -0.304203631, -0.315387204, -0.102388590, -0.000941453, 0.020191849, 0.053644628, 
0.116132996, 0.174998201, 0.157729798, 0.145491015, 0.077055764, 0.163472978, 0.193593233, 0.268651183, 0.036673963, 0.100119138, 
0.024330250, 0.250604395, -0.059760806, -0.028117981, -0.091702906, 0.061274865, 0.194141352, 0.065311860, 0.156382627, 0.232938188, 
0.216591410, 0.197181512, 0.070080728, -0.165510533, -0.072993630, -0.027492014, -0.014979151, 0.056309917, 0.115538605, 0.107723940, 
0.195107828, 0.125422313, 0.046867065, 0.207693342, 0.049013920, -0.146029345, -0.273118564, -0.411673057, -0.510479685, -0.384121701, 
-0.311238147, -0.052111298, 0.261404063, 0.299930291, 0.284947310, -0.057448545, 0.112356118, 0.040622889, 0.189049233, 0.286698660, 
0.173186297, 0.023544406, -0.009691769, 0.014098230, 0.010756373, 0.035312642, 0.070937955, 0.090845175, 0.155420873, -0.000767290, 
-0.050441267, -0.026098620, -0.235635210, -0.360218538, -0.366603947, -0.516440106, -0.461247430, -0.144436869, -0.103746673, 0.060210273, 
0.138072767, 0.145972209, 0.081372214, 0.017313512, -0.062097785, -0.101851765, 0.156658549, 0.312674106, 0.144009763, 0.066265268, 
0.042379774, 0.042358899, 0.020631608, 0.020708328, 0.025721107, 0.037272390, -0.076794729, -0.233856387, -0.175094102, -0.273719964, 
-0.247302273, -0.319409660, -0.045085329, -0.175571921, -0.189814473, -0.123701337, -0.031459981, 0.016691697, 0.123942633, 0.136609086, 
0.155348118, -0.200832198, 0.067439602, 0.167387457, 0.190069883, 0.200118092, 0.131249059, 0.064141259, 0.037561766, 0.026171301, 
0.032704424, -0.018482186, 0.006719671, 0.026367997, -0.151820647, -0.231443936, -0.136336656, -0.175707568, -0.237221466, -0.269337250, 
-0.005096063, 0.101711672, -0.127348411, -0.241724726, -0.152838683, 0.004835127, 0.047311392, 0.260661909, 0.215703551, -0.034097901, 
0.326853972, 0.119102658, -0.028053391, -0.004328928, 0.093313872, 0.081855932, -0.022369626, -0.025963475, 0.019065467, -0.007572862, 
-0.027578597, 0.001058901, -0.144270167, -0.181840382, 0.045590137, -0.012865782, -0.183676951, 0.021793324, 0.056775321, 0.216226455, 
0.074788002, -0.275018134, -0.185693966, -0.009841942, 0.046587126, -0.112049428, -0.180135771, -0.028858555, 0.128550770, -0.105389256, 
-0.009579357, -0.023584048, 0.162269170, 0.164698076, 0.003707462, 0.020591911, -0.013599318, 0.025878183, -0.026253601, -0.068176320, 
-0.229622572, -0.226725299, 0.030333333, 0.064959723, -0.058030178, 0.054322928, 0.002148602, 0.263455753, 0.065470396, -0.134775940, 
-0.194248808, -0.007148301, -0.084834167, 0.067211803, -0.046593377, 0.237612938, 0.088190101, -0.105748376, 0.136496477, 0.056015981, 
0.120343675, 0.089750171, -0.021531177, -0.007181049, -0.010843271, -0.000972203, -0.028577198, -0.073624961, -0.211155835, -0.242352883, 
-0.163516210, -0.027994192, 0.001193472, -0.181648715, -0.010788842, 0.100240491, 0.010649935, -0.235616440, -0.300463729, -0.146074932, 
-0.100241470, 0.076156548, 0.234678184, 0.234564605, 0.082212256, 0.074406753, 0.093488587, -0.008085076, 0.057305334, 0.093177548, 
-0.009578735, 0.002582568, 0.007539674, -0.004609702, -0.000769573, -0.062901632, -0.150484996, -0.220162567, -0.245716038, -0.176519107, 
-0.001990697, -0.072573285, 0.162611146, 0.151210080, 0.182784364, -0.036965002, 0.068213653, 0.008866003, -0.097364482, 0.071909195, 
0.226870761, 0.139284996, 0.164179896, -0.026263181, 0.083472347, 0.034885635, 0.029848967, 0.077803759, 0.010292943, -0.019116189, 
0.020535420, -0.026823433, -0.007382479, -0.081815526, -0.045734506, -0.076263754, -0.279111249, -0.237038668, -0.202494057, 0.116174380, 
0.182988219, 0.131051033, 0.331489092, 0.441435128, 0.329638370, 0.176026282, 0.043975347, -0.047304831, 0.087068084, 0.046334636, 
-0.092092174, -0.184162369, -0.135307732, 0.001184062, 0.077371447, 0.031379575, 0.018367071, 0.016670359, 0.028593164, 0.000733365, 
0.006877586, -0.070435840, -0.068858698, -0.101316844, -0.305329981, -0.227228192, -0.162263359, 0.071074440, 0.067012671, 0.168675480, 
0.316218117, 0.358526070, 0.166207048, 0.151024211, 0.078832629, -0.067421782, -0.265492020, -0.266077729, -0.309663110, -0.323921766, 
-0.191219675, 0.022794407, 0.073377172, 0.021365016, 0.025713754, 0.001718204, -0.012771725, 0.011294375, -0.050871646, -0.075799806, 
-0.062304082, -0.076015199, -0.109361506, -0.085204753, -0.187175756, -0.171546854, -0.214620786, -0.353416586, -0.237609879, -0.301517219, 
-0.288177351, -0.301584295, -0.289838150, -0.461124172, -0.535381443, -0.499616536, -0.336726224, -0.260563595, -0.130224956, -0.056633716, 
0.073356532, 0.024511990, 0.018673121, -0.027021644, 0.004681455, 0.013603224, -0.022212847, -0.034012575, -0.017229787, 0.032500079, 
0.025983127, 0.011822066, -0.263040619, -0.359153903, -0.401471189, -0.547586926, -0.602329015, -0.590886575, -0.565982570, -0.566724356, 
-0.539032999, -0.553468254, -0.453060343, -0.382287436, -0.272764495, -0.154193064, -0.043067203, -0.065215797, 0.033843595, -0.002283641, 
0.016867800, -0.021736158, 0.020536491, 0.009359290, -0.027128939, -0.038242236, 0.016787327, 0.153582791, 0.129153209, 0.180458858, 
0.045998628, 0.020238668, -0.013998135, -0.136146596, -0.112315285, 0.008369117, -0.089727808, -0.077057517, 0.003603332, 0.101722047, 
0.157919816, 0.034101564, 0.056787417, 0.050555285, -0.003683272, -0.027699639, 0.048522842, -0.024478009, -0.030652180, -0.022729983, 
-0.002235907, 0.020896796, -0.013805184, -0.020209672, 0.037819329, 0.101909928, 0.105177659, 0.216770438, 0.270494804, 0.353667020, 
0.383232887, 0.367706184, 0.389375249, 0.346137997, 0.289488092, 0.380992586, 0.402628925, 0.387883627, 0.374490874, 0.297456233, 
0.221171115, 0.155062594, 0.074276204, -0.014764483, 0.004183589, 0.000527717, -0.004555850, -0.029661381, 0.000860562, -0.006690751, 
-0.019472288, 0.031575681, -0.032998758, 0.003859716, 0.052975332, 0.103015839, 0.092906371, 0.219243354, 0.315600404, 0.284450340, 
0.270445167, 0.273401981, 0.329256835, 0.310900399, 0.269562901, 0.258777911, 0.294014242, 0.218630236, 0.096304819, 0.043402701, 
0.039557795, -0.017964825, -0.005758806, 0.006474457, -0.008234892, 0.010325694, -0.028748527, 0.019376624, 0.013742513, 0.005483213, 
-0.020957184, 0.028454076, 0.011209855, 0.018696287, 0.031731889, 0.054119772, 0.035181878, 0.028578085, 0.049740744, 0.059270833, 
0.076718776, 0.043124456, 0.034915125, 0.022401022, 0.059849229, 0.088955060, 0.014653819, 0.000310912, 0.050454929, 0.024619532, 
0.015053679, -0.028453967, -0.031708923, -0.025668880, -0.538020668 },
{ -0.007052967, 0.017994249, 0.015674365, -0.021293405, -0.002590044, -0.013347928, -0.008738192, -0.008655649, 0.024447810, 0.018935014, 
0.022986978, 0.012172621, 0.022808286, -0.001969428, -0.008315505, -0.011653223, 0.018443739, 0.024984983, 0.015312447, -0.031842267, 
-0.005074175, 0.014312875, -0.007334533, 0.021131403, 0.003985132, -0.023490414, 0.002262723, 0.008862797, -0.022399599, 0.010251265, 
-0.014458222, 0.004714622, -0.006220428, -0.031636853, 0.017179147, 0.025085052, -0.007571297, -0.020091825, -0.012368574, -0.018287685, 
0.022917573, -0.021615631, 0.021323503, 0.002128600, 0.018583514, -0.012971334, -0.031040021, -0.012100557, -0.026653146, 0.019602017, 
-0.010711735, 0.003392429, 0.000512942, 0.016873590, -0.009679326, -0.028884795, 0.026456211, 0.026194583, 0.013153491, -0.028832616, 
0.002820348, 0.031556123, 0.010853434, 0.032004463, 0.059062229, 0.056528368, 0.059205016, 0.010297659, 0.030388067, 0.024280200, 
0.010494747, -0.032771311, -0.025491052, 0.012165114, -0.013996126, 0.019903693, 0.016103348, -0.018064782, -0.020935965, 0.021600035, 
-0.024117248, -0.002274403, -0.014122069, 0.002917069, -0.022165627, 0.010823527, 0.007339506, -0.028622869, 0.001918623, -0.013746066, 
-0.021504408, -0.017509050, 0.039514597, 0.136283384, 0.143129927, 0.232800703, 0.269720955, 0.312185163, 0.257703010, 0.206995115, 
0.168298489, 0.138741901, 0.166584839, 0.081853814, 0.058720928, -0.072798054, 0.017087163, 0.029627704, 0.041124133, 0.033735712, 
0.026029138, -0.000104854, -0.010502748, -0.022951708, -0.030282331, 0.001525148, 0.022193256, 0.022748609, 0.032205009, 0.046191053, 
0.134044783, 0.191176773, 0.227626248, 0.239847797, 0.275487790, 0.258794081, 0.157926788, 0.206957394, 0.232098300, 0.221289726, 
0.207206565, 0.111790156, 0.035018538, -0.138519116, -0.104496838, -0.065287146, 0.030850375, 0.012725242, 0.024644893, -0.029465901, 
-0.020402002, 0.011939613, 0.002704685, -0.008975812, 0.023724293, 0.061640292, 0.068033547, 0.155440358, 0.256636802, 0.307898714, 
0.287079435, 0.303819349, 0.317515477, 0.264255258, -0.059396284, 0.019877145, 0.143085166, 0.241832497, 0.177677075, 0.066712020, 
-0.044125914, -0.129913680, -0.251574028, -0.170426699, -0.039392738, 0.014128807, 0.033099101, 0.015899239, -0.012548714, 0.011782932, 
0.026381995, -0.023012486, -0.027603569, 0.074041341, 0.152459534, 0.258645648, 0.332080836, 0.358318873, 0.391707125, 0.316968369, 
0.337950959, 0.271790808, 0.053179535, 0.299677938, 0.307241432, 0.297692664, 0.138333400, 0.149137774, -0.115070861, -0.073607951, 
-0.137601325, -0.155423944, -0.072033886, -0.024547441, -0.031303435, -0.009737254, -0.018481369, 0.009004637, -0.012957916, 0.011119342, 
0.007330534, 0.112047724, 0.185545058, 0.281722863, 0.317488146, 0.353222770, 0.348224781, 0.322517669, 0.171179585, 0.162103200, 
0.160907720, 0.338236419, 0.309213265, 0.281049435, 0.285735400, 0.109731800, -0.003743611, -0.045865213, 0.026186041, -0.118813923, 
0.003042201, -0.068607855, -0.050578452, -0.029587058, 0.016155741, -0.001268101, 0.005288384, 0.035588248, 0.006894239, 0.080780869, 
0.184682984, 0.250634063, 0.302972025, 0.364053055, 0.396709761, 0.360062868, 0.169269351, 0.059688060, 0.129366588, 0.117820635, 
0.032666209, 0.032319607, 0.171483227, 0.116129002, 0.048711902, -0.003502777, 0.031747466, 0.045791390, 0.000295743, -0.104690352, 
-0.053361489, -0.028136585, -0.021495895, 0.013408459, -0.010188002, 0.036887779, 0.019156782, 0.116127732, 0.195157758, 0.227144214, 
0.325568231, 0.359341401, 0.357354352, 0.179396392, 0.101284776, -0.185582566, -0.213654476, -0.288579688, -0.343948619, -0.097035973, 
-0.085331985, 0.030501948, 0.033589257, -0.080114585, -0.023673319, -0.124332742, -0.221998716, -0.182773829, -0.018683505, -0.007317683, 
0.023090751, 0.027866798, 0.012487149, -0.003631119, 0.053955907, 0.116954620, 0.169765932, 0.211822348, 0.290099152, 0.338115609, 
0.298030384, 0.084764230, -0.145255516, -0.328507197, -0.356004233, -0.461464913, -0.356037518, -0.095355971, 0.086518166, 0.149159527, 
0.034575968, -0.093764937, -0.105644875, -0.189688954, -0.248590770, -0.179610150, -0.031024622, -0.026508601, -0.007388423, 0.015563101, 
0.000523905, -0.000831369, 0.046858624, 0.039632274, 0.121210753, 0.174772985, 0.241186157, 0.247245645, 0.299312439, 0.190215195, 
-0.150999426, -0.324347662, -0.356806954, -0.386976325, -0.189181596, 0.305810107, 0.340439404, 0.329261799, 0.197722122, 0.107842175, 
0.096453970, 0.031900569, 0.021592423, -0.007840646, 0.011388922, 0.021680878, 0.019920129, -0.005064841, 0.032871085, -0.004045737, 
0.023137641, 0.068900684, 0.101121236, 0.117477216, 0.114547812, 0.197555944, 0.275327590, 0.156220135, -0.228630318, -0.252341181, 
-0.364166930, -0.309872734, 0.087933986, 0.277054741, 0.427644491, 0.388424056, 0.325933652, 0.214508329, 0.223803476, 0.150794476, 
0.138311843, 0.081937452, 0.010726862, -0.016892907, -0.022001228, -0.032225895, -0.019100910, 0.037445968, 0.039015029, 0.015454347, 
0.022319918, 0.065654313, 0.072900180, 0.177754726, 0.201329571, 0.052709803, -0.200238798, -0.149925854, -0.337372501, -0.142915186, 
-0.079347503, 0.085407317, 0.244998604, 0.274149556, 0.279573157, 0.264509379, 0.196974637, 0.170276025, 0.131714421, 0.093521851, 
0.026130451, 0.029636083, -0.025498037, 0.006218038, -0.021835960, -0.009249458, 0.037398322, 0.013442538, 0.019515866, 0.058463731, 
0.071627732, 0.039669097, 0.157747182, 0.136365190, -0.006236864, -0.025348921, -0.220837942, -0.122359702, -0.144821026, 0.143672644, 
0.164744806, 0.258713906, 0.282803075, 0.243576308, 0.171310244, 0.091848939, -0.019121510, 0.009562895, -0.015566972, -0.007295292, 
0.023623971, -0.006137750, -0.015815269, 0.041686263, -0.019709153, -0.006149217, -0.001554114, 0.136297635, 0.108361760, 0.118721129, 
0.126662948, 0.084617277, -0.004897785, -0.045371019, -0.082678056, 0.026134846, -0.116701573, 0.126481428, 0.078126323, 0.267718672, 
0.272242012, 0.215910816, 0.177127676, 0.058059925, 0.043995922, 0.054356587, -0.011251839, 0.020113663, -0.023787744, -0.020971113, 
-0.014902820, 0.055715127, 0.002327531, -0.056429643, 0.118437549, 0.189214025, 0.276894034, 0.248995248, 0.272766370, 0.118158257, 
0.136596259, -0.201061170, -0.149421010, 0.083833350, 0.063628703, 0.089908645, 0.107563288, 0.289966215, 0.309173186, 0.209831261, 
0.194209326, 0.111856603, 0.083287214, 0.066990626, 0.012335492, 0.034136904, -0.018646814, -0.017321898, 0.022271880, 0.018266943, 
-0.088840729, -0.100120738, 0.033967585, 0.065881806, 0.164958909, 0.296358692, 0.218843051, 0.178985545, 0.118090348, -0.306802744, 
-0.149799947, 0.125345861, 0.054784334, 0.057993303, 0.148551382, 0.270778042, 0.238019691, 0.173529406, 0.211209674, 0.148242798, 
0.121845822, 0.031705552, 0.019709390, 0.019238118, 0.008203846, 0.006041561, 0.008586711, 0.042754264, -0.050252349, -0.107149067, 
-0.123960618, -0.032782303, 0.043095334, 0.197828795, 0.176176674, 0.044440467, -0.169216687, -0.320652510, -0.279916942, 0.048766452, 
-0.054446719, -0.047138999, 0.108284206, 0.140073240, 0.203206598, 0.233673721, 0.240137090, 0.163995903, 0.092797019, 0.019574270, 
0.020599565, 0.022050752, 0.009195490, -0.023493359, 0.009561187, 0.015219027, 0.066138617, 0.084548905, 0.059218303, -0.025642185, 
-0.050690049, -0.068554446, 0.077956409, -0.203387428, -0.208411320, -0.284335552, -0.208256111, -0.022076105, -0.103397912, -0.040882095, 
0.076269765, 0.082271344, 0.205077066, 0.273606414, 0.213430682, 0.144806521, 0.084196403, -0.013331327, -0.026472048, -0.021831527, 
0.013559836, 0.029164843, 0.042048203, 0.047493659, 0.083134249, 0.212140388, 0.045505287, 0.031814509, -0.105006878, -0.142721464, 
-0.214803292, -0.235010193, -0.206659106, -0.092137231, -0.138021542, 0.003215188, -0.130984770, -0.126937540, -0.008400779, 0.209439588, 
0.276498137, 0.309418805, 0.248512807, 0.156465807, 0.056454741, 0.009093027, -0.010333284, -0.014525490, 0.031743914, 0.009122602, 
0.004785145, 0.026455559, 0.061364969, 0.058664314, -0.119552373, -0.145951654, -0.085025109, -0.047593170, -0.199699379, 0.019273305, 
0.001624644, -0.110093065, -0.025124825, -0.161328107, -0.065093358, -0.208768363, 0.063114845, 0.260260431, 0.286086013, 0.250004092, 
0.176694529, 0.084176675, 0.042932427, -0.003466649, 0.021248387, -0.020565719, -0.028073536, -0.016392283, 0.001659831, -0.017124548, 
0.046795159, -0.033803571, -0.157373081, -0.151758663, -0.000334083, -0.117414816, -0.037882402, 0.229332848, 0.263745932, 0.277330583, 
0.100536854, 0.092196076, -0.143108171, -0.313380016, -0.156183808, 0.118251792, 0.193112147, 0.131605619, 0.059839332, 0.056144398, 
0.002010879, -0.022227399, 0.021029601, -0.030949699, 0.002445492, 0.010390802, -0.017993354, 0.052427917, 0.037081428, -0.154889672, 
-0.121219070, -0.128553203, 0.001411638, -0.021531684, 0.007704502, 0.086425168, 0.197706745, 0.369644826, 0.297574113, 0.063219176, 
-0.182924089, -0.263149659, -0.149403581, 0.105356318, 0.175774934, 0.128149303, 0.045935500, 0.060370089, 0.021937354, -0.017683691, 
0.004544426, -0.020603641, -0.002065314, -0.001690690, -0.018623251, -0.010617163, 0.016301329, -0.032618818, 0.078473574, 0.112230062, 
0.193776092, 0.146845215, 0.249963966, 0.318943561, 0.309554974, 0.365062309, 0.382200158, 0.322478201, 0.285142510, 0.114780377, 
0.005381847, 0.059593552, 0.085825811, 0.048457654, -0.021918391, -0.003061111, -0.031969087, -0.020062558, -0.021546781, 0.022465791, 
0.003072462, 0.021826712, -0.030943230, -0.028055834, 0.028354137, 0.045268266, 0.093030889, 0.177120208, 0.217151686, 0.260966263, 
0.320188278, 0.301242238, 0.294015774, 0.275306634, 0.267254283, 0.292686747, 0.261256880, 0.168130597, 0.052286724, 0.060821426, 
0.042756385, 0.033970000, -0.004040006, -0.010517425, -0.006119593, -0.000278567, 0.014934674, -0.005966218, 0.015111639, 0.026745349, 
-0.017159299, -0.016196048, 0.017252541, -0.002245625, 0.010585078, 0.006816394, 0.043823814, 0.051899813, 0.093403984, 0.098394016, 
0.146662528, 0.141116004, 0.073427932, 0.116274290, 0.049476658, 0.058928553, 0.046580338, 0.019391343, -0.004800194, -0.025751014, 
0.004405471, -0.013168475, -0.028395910, 0.031493657, 0.011181382, -0.001091354, -0.001757779, -0.008491563, 0.026624995, -0.020617344, 
-0.015093754, -0.023576076, -0.002652489, -0.031530986, -0.003768621, 0.016855412, -0.017283534, 0.032317265, -0.031287587, 0.001457905, 
-0.015966814, 0.029043342, -0.009968188, -0.010128513, 0.032939087, 0.008390525, -0.026151787, -0.008771098, -0.017648009, -0.000264105, 
-0.002592028, 0.018356579, 0.020250609, 0.002482363, -0.221142804 },
{ -0.002826082, -0.031560871, -0.018758502, 0.022780525, 0.027842569, -0.005662964, -0.025467602, -0.028611321, 0.025284926, -0.025122890, 
-0.000390366, 0.008033873, -0.023576973, -0.003586998, 0.011017594, 0.009507481, 0.010451055, 0.008303553, -0.030958734, 0.029908635, 
-0.002812746, 0.009543601, -0.029475761, 0.022311514, 0.024624637, 0.003387930, -0.014137603, 0.009572550, -0.010641588, 0.022212546, 
-0.007951863, 0.020763892, 0.023459181, 0.007737227, 0.010229017, 0.018198996, -0.033049602, 0.014978265, 0.013465721, 0.005211329, 
-0.008969627, -0.021294279, 0.024504628, -0.025839294, 0.025370427, -0.037529130, -0.000489036, -0.007004131, 0.012730309, 0.011168698, 
-0.007536418, -0.016817789, -0.010693382, -0.004084126, -0.027728545, -0.019427210, 0.032148035, -0.008589961, 0.023584194, -0.011331104, 
-0.020059602, -0.017859073, -0.019672513, -0.026380493, 0.021614012, 0.011755549, 0.021810947, 0.045407917, -0.043306987, -0.053525748, 
-0.032827034, -0.059404704, -0.003694252, -0.057254364, -0.066838408, -0.037939137, -0.050173283, -0.046533507, -0.032362538, -0.013963826, 
0.049890564, 0.023808710, 0.001689996, -0.019022769, -0.030137946, 0.007435123, -0.004640006, -0.030784054, 0.031399300, -0.019734099, 
-0.001029238, -0.001237466, 0.022677466, 0.051525099, -0.039695995, -0.062292574, -0.166628228, -0.103730104, -0.168454740, -0.168888544, 
-0.058367484, -0.154010428, -0.249522351, -0.171435174, -0.148732486, -0.065513977, -0.057477827, -0.036736923, 0.022364867, 0.024784298, 
-0.028314184, 0.021819305, -0.012727404, 0.008573178, -0.029996789, -0.008969944, -0.033342710, -0.065728071, 0.025004258, 0.044914011, 
0.054589111, 0.086046186, 0.166199173, 0.113333170, 0.107058481, 0.158529761, 0.179534598, 0.134776455, 0.103020258, -0.005706570, 
-0.172672923, -0.059518623, -0.087562073, -0.018667404, -0.012930853, -0.034532022, -0.044751763, -0.005604877, -0.026831046, -0.002229406, 
-0.007572633, -0.019570947, -0.013094768, -0.004800822, -0.031228116, -0.048398171, 0.075581939, 0.132099147, 0.184042477, 0.093706828, 
0.102136738, 0.198277309, 0.187678126, 0.164516916, 0.165580646, 0.104664814, -0.090674739, -0.124543298, -0.120544918, -0.208116532, 
-0.107116671, 0.065439107, 0.091462799, -0.027004103, -0.073111320, -0.053220028, 0.004711073, 0.018082104, -0.010674374, 0.017791855, 
-0.015367729, -0.050715195, 0.023010714, 0.066251439, 0.202667897, 0.148563429, 0.089357289, 0.024139149, 0.228771757, 0.195932181, 
0.142458861, 0.127723931, 0.085131832, -0.079987594, -0.188596777, -0.234532222, 0.001626273, -0.100754560, -0.055513610, 0.115660722, 
0.017624043, -0.179910340, -0.209144230, -0.127275586, -0.040873370, -0.001625046, -0.009686955, -0.026145718, 0.019748000, -0.008344241, 
0.094799072, 0.140473226, 0.192617636, 0.162616441, 0.214177523, 0.267235132, 0.243021785, 0.291992395, 0.263987216, 0.249440138, 
-0.079305411, -0.235064048, 0.024203152, 0.015581875, -0.012831748, 0.167917500, 0.014494030, 0.056813093, 0.045934337, -0.148277654, 
-0.273392922, -0.136209374, -0.030285686, -0.020159515, -0.005392763, -0.017998735, 0.052388518, 0.031518058, 0.042736343, 0.106861547, 
0.091476253, 0.139217353, 0.237234576, -0.038300926, 0.124524693, 0.273860841, 0.320811135, 0.227759088, 0.145394856, 0.101187601, 
-0.139632488, 0.058230943, 0.082011472, -0.051943323, -0.082775340, -0.074868023, -0.136449578, -0.225496466, -0.362079612, -0.219124864, 
-0.051650629, -0.008579168, -0.013735768, -0.007246899, 0.050062474, 0.045748564, 0.158903983, 0.198256547, 0.100353536, 0.081030200, 
0.051124280, 0.064795634, 0.116403095, 0.202762343, 0.315629944, 0.458341060, 0.465194735, 0.270454732, 0.148710455, 0.075199852, 
-0.005853031, -0.097639296, -0.091337183, -0.235218498, -0.314148601, -0.255479351, -0.312693217, -0.211511309, -0.046383981, 0.009201870, 
0.027669885, -0.007791987, 0.042737888, -0.061939501, 0.074358513, 0.090616168, 0.156054422, -0.001053417, 0.109482297, 0.201366912, 
0.101362095, -0.077926500, -0.179574837, -0.098161094, 0.283204741, 0.333967614, 0.280248320, 0.172595610, -0.094786415, -0.062906450, 
-0.140149033, -0.304517851, -0.275535001, -0.237613435, -0.225100276, -0.149813024, 0.001672050, -0.001286961, -0.005759386, 0.024184265, 
0.051210260, -0.041814652, -0.030306500, -0.110529657, -0.083677746, -0.149868134, -0.199810535, -0.160856764, -0.408543653, -0.553880000, 
-0.547097277, -0.511108283, -0.319884609, 0.082728249, 0.134164004, -0.060574046, 0.039820872, -0.138820174, -0.132950804, -0.277714957, 
-0.264224600, -0.246390983, -0.111414884, 0.020137544, -0.019273948, -0.007061932, -0.032648947, -0.008218745, 0.064420208, -0.002276465, 
-0.101014914, -0.315207020, -0.358792265, -0.363145790, -0.477044294, -0.575405675, -0.685752108, -0.758576411, -0.659808208, -0.610933479, 
-0.465439433, -0.175199802, -0.252488117, -0.166384061, -0.168611427, -0.228041975, -0.149286303, -0.248203294, -0.300583443, -0.233820385, 
-0.089765076, 0.102627421, 0.014791831, -0.006964411, 0.022211224, -0.006916819, 0.019375614, 0.008664571, -0.130569876, -0.398651146, 
-0.511263871, -0.560233597, -0.653232026, -0.727157696, -0.675825376, -0.697088071, -0.665386186, -0.485870247, -0.256011878, -0.362985029, 
-0.332056428, -0.091670522, -0.086943977, -0.133316593, -0.203963490, -0.102085495, -0.192575282, -0.223221845, -0.102113522, 0.102660430, 
0.064556376, 0.004805438, 0.006697671, 0.024049222, 0.015749668, -0.043826404, -0.180151375, -0.423764934, -0.550416430, -0.609062093, 
-0.674506582, -0.609363460, -0.428575933, -0.489031425, -0.381477044, -0.157071504, -0.140578102, -0.267044988, -0.138014588, -0.190820714, 
0.078585504, -0.035896032, -0.121381152, -0.000868680, -0.072311167, -0.177480944, -0.095478406, 0.015554918, 0.038895590, 0.025798415, 
0.030871776, -0.027996694, -0.008872127, -0.029238314, -0.130525716, -0.325810667, -0.450714525, -0.430063219, -0.304452641, -0.181740770, 
-0.056067185, 0.064609228, 0.015531813, 0.178247027, 0.134559578, -0.082188735, 0.074632565, -0.034356786, 0.042196293, -0.145682906, 
-0.033839083, 0.022207621, -0.113427981, -0.141336813, -0.067682756, 0.075609952, 0.082952604, -0.003934966, 0.024940636, 0.026985415, 
-0.026785922, -0.026480080, -0.081387870, -0.170143451, -0.228079471, -0.107537999, 0.011442666, 0.145008597, 0.117180695, 0.046361482, 
-0.008283323, 0.262830425, 0.245850889, 0.048243040, 0.017327945, -0.131719214, -0.280602482, -0.214286700, -0.100330972, -0.057323560, 
-0.060608981, -0.006702719, 0.094814810, 0.220172124, 0.157571644, 0.072181515, 0.004595144, -0.025801445, -0.028551996, -0.047959839, 
-0.067073649, -0.005572200, -0.001147525, 0.094501192, 0.209727104, 0.282694639, 0.155709327, 0.211118487, 0.332719238, 0.388846031, 
0.271699332, 0.091448008, -0.128031258, -0.251148153, -0.218895956, -0.207194645, -0.156757989, -0.140862738, 0.016651444, 0.110018678, 
0.179050351, 0.216874620, 0.099998106, 0.027708875, -0.026352558, 0.014235623, -0.054107141, -0.060665945, 0.045755457, 0.148550415, 
0.038043942, 0.142943224, 0.072652628, 0.173740374, 0.243484122, 0.241645952, 0.407600213, 0.477342892, 0.438927205, 0.000273171, 
-0.075505765, -0.138827624, -0.308775701, -0.281902760, -0.166472370, -0.129237921, 0.059574664, 0.186024589, 0.316534975, 0.243659969, 
0.040862035, 0.030903843, -0.029951528, -0.019904482, -0.057722740, -0.097094513, 0.106686393, 0.110401944, 0.094346821, 0.075701070, 
0.141601854, 0.129284023, 0.089241942, 0.076074441, 0.178721722, 0.405622036, 0.320580891, 0.204924214, 0.028598158, -0.165333870, 
-0.300709142, -0.193809934, -0.033099404, -0.049240344, 0.171848851, 0.261941481, 0.306546557, 0.217923224, 0.065229332, 0.037138312, 
-0.004213910, -0.012146952, 0.000680242, -0.041334666, 0.154967595, 0.162875428, 0.184143489, 0.063542560, 0.234020687, 0.108867804, 
0.031253120, 0.096132778, 0.147645581, 0.120814239, 0.064053917, -0.038264270, -0.129728433, -0.159101842, -0.154096804, -0.221534086, 
-0.119341692, -0.027306228, 0.094973403, 0.227659389, 0.249227632, 0.135150894, 0.048674172, -0.023265286, -0.003533035, -0.023527331, 
-0.000508164, 0.013163685, 0.027283788, 0.162733330, 0.130498725, -0.098107378, 0.097544818, 0.081505663, 0.226287352, 0.030135555, 
-0.033209221, -0.132911218, -0.200160210, 0.043901588, 0.051073551, 0.108522411, 0.149129118, -0.206688703, -0.183876543, -0.070657822, 
0.108370827, 0.231323753, 0.194511760, 0.085121778, 0.001511284, 0.009374080, -0.000838945, -0.012279672, 0.039029062, 0.041858863, 
0.138717043, 0.285473717, 0.176188545, 0.086111236, -0.000383151, -0.031709771, -0.084734893, -0.243409845, -0.304763016, -0.233985455, 
0.115053355, 0.046634175, 0.019737680, 0.103573183, 0.097696340, -0.171538811, -0.127844039, 0.020703482, 0.149216175, 0.148261934, 
0.084231510, 0.030195728, 0.033887222, 0.031571941, -0.030668404, -0.003478345, -0.019095883, -0.079396837, -0.027423152, 0.152359713, 
0.227609377, 0.107453848, -0.148873772, -0.076282867, -0.173047540, -0.117551517, -0.213008722, -0.304131005, -0.124355324, -0.022563659, 
0.123106589, 0.082176781, -0.027652189, -0.099078376, -0.162639332, 0.012156479, 0.048457272, -0.008473960, 0.062739814, 0.018268523, 
0.023572992, 0.016058477, -0.030318621, 0.014566878, 0.003827519, -0.069399769, -0.061392465, 0.089885428, 0.061589737, -0.035816995, 
-0.128417961, -0.140717981, -0.200230816, -0.182000608, -0.231737395, -0.276502135, -0.216565709, -0.231455860, -0.203447208, -0.001354572, 
0.003420872, 0.042194499, 0.063217130, 0.108024175, 0.054070698, 0.007494686, 0.043625787, 0.041073788, 0.026536237, -0.020930990, 
-0.017405110, -0.000185412, 0.025521463, -0.021047830, -0.020798460, 0.039000122, -0.046309943, -0.042875052, 0.046351215, 0.051269010, 
-0.082417652, 0.014834482, -0.019095742, 0.016274688, -0.083742229, -0.035420663, 0.043212257, 0.143017211, 0.089765033, 0.068718978, 
0.060775833, 0.064859227, -0.010249312, -0.037080638, 0.004757321, -0.007078770, 0.022970817, -0.021182822, 0.027621036, 0.000043874, 
-0.008592147, -0.022815795, 0.032591067, -0.021326828, 0.005928274, 0.019900410, 0.100252600, 0.133455929, 0.149233076, 0.146441596, 
0.104143119, 0.166942813, 0.189227516, 0.213051876, 0.124407595, 0.134337211, 0.081825865, 0.037319626, 0.030654143, 0.007263927, 
0.035306146, 0.029879707, -0.032443790, -0.014689658, -0.028144590, 0.004852513, 0.006231428, 0.020311782, 0.017426357, 0.000326474, 
-0.013746804, -0.024220054, 0.013594644, -0.008642409, 0.004133504, -0.014066528, 0.026913199, 0.003474181, 0.044029162, -0.000323089, 
0.025266936, 0.043744718, 0.053494464, 0.046762951, 0.012083453, 0.010642762, -0.010360813, 0.002249900, 0.011645349, 0.010049937, 
0.025260256, -0.012657159, 0.005616774, 0.025522447, 0.148319400 },
{ 0.010794020, -0.003471510, -0.020834519, -0.003162741, -0.019914678, 0.013550214, 0.017459714, -0.011197299, -0.009612973, -0.029449299, 
0.018559851, -0.001886752, 0.003924473, -0.024532710, -0.007999443, 0.010082956, -0.004498989, -0.028535005, 0.008186567, -0.011192963, 
0.001475157, 0.030834526, 0.008983864, -0.026882434, 0.005694063, -0.017040996, 0.031175194, 0.026498265, 0.022260384, 0.023888294, 
0.000074450, -0.001009799, -0.013313594, 0.013258970, 0.027303877, -0.004475699, -0.024286042, -0.002896051, -0.004152168, -0.037594800, 
-0.061794292, -0.029230374, -0.043180390, -0.054129056, -0.005783201, -0.012140586, 0.020290939, -0.023918407, 0.004335837, -0.017007648, 
-0.026694932, -0.028530133, 0.002985119, -0.021790606, -0.013676624, -0.025198256, -0.005104291, -0.015401287, -0.031492642, -0.016554342, 
-0.024893929, 0.001228065, -0.001512909, -0.046329621, -0.117706982, -0.137896442, -0.122238887, -0.193322013, -0.255505983, -0.215434779, 
-0.197503051, -0.230250830, -0.230908475, -0.188804668, -0.140985120, -0.113643759, -0.076381192, -0.030566644, -0.043414352, 0.000683840, 
0.030946271, 0.030370160, -0.027459763, 0.001241295, -0.024347936, -0.007817394, 0.009776055, 0.004268443, 0.006456090, -0.009772414, 
-0.062666220, -0.140012472, -0.257357422, -0.281898622, -0.301372104, -0.284640879, -0.331183586, -0.308781823, -0.287948384, -0.277769791, 
-0.168220528, -0.191125931, -0.192483147, -0.112494446, -0.074489505, -0.075544101, -0.026706508, -0.032282947, 0.025113579, -0.028678612, 
-0.030569428, 0.006161220, 0.032211493, -0.026404374, -0.026435107, -0.023176091, -0.003343927, -0.027822584, -0.107823847, -0.215027481, 
-0.170359063, -0.194607702, -0.254524983, -0.179728492, -0.270226656, -0.160764444, -0.213235141, -0.199371267, -0.229903493, -0.026557284, 
-0.153847160, 0.079797916, 0.057634621, 0.021479105, -0.023813644, -0.068903077, 0.048255618, -0.006342289, 0.015575695, 0.003719309, 
-0.004857186, -0.004135340, -0.024965693, -0.006874194, 0.015139228, -0.001888523, -0.010039681, -0.092538480, -0.043852647, -0.107213548, 
-0.148880098, -0.053941135, -0.150637638, -0.085544498, 0.133461290, 0.140940969, 0.025402825, 0.073105339, -0.115590583, -0.123112308, 
-0.176124941, -0.118050724, -0.073661273, -0.045493194, 0.067220134, 0.060441054, 0.025222328, 0.020279055, -0.017653967, -0.030947546, 
-0.012102733, -0.002037321, 0.019103378, 0.086527392, -0.055227396, -0.124891442, -0.038640321, -0.112571334, -0.082232427, 0.090127928, 
-0.226490280, -0.176680588, -0.158974557, -0.070201655, 0.013065343, 0.080174554, 0.209406716, 0.197628644, -0.101499192, 0.055991813, 
0.172373799, 0.166451767, -0.051365217, -0.021183497, -0.030638946, 0.003718417, -0.012128348, 0.029893004, -0.012028473, 0.019708270, 
-0.011015603, 0.071375524, -0.034924990, 0.047950526, 0.075947604, 0.014296698, 0.147417259, 0.114619750, -0.070511795, -0.084034877, 
-0.268645421, -0.303052488, -0.073819237, 0.148864271, 0.325080550, 0.252828841, 0.186961685, 0.264332207, 0.334098579, 0.361268242, 
-0.076204956, -0.165542267, -0.072700371, -0.010930570, 0.021031276, 0.006282351, 0.007771241, 0.025043251, 0.043879352, 0.072861154, 
-0.026558958, 0.115477968, -0.004773434, -0.048150350, 0.121172188, 0.172106621, 0.005291393, -0.074263725, -0.150238003, -0.005210468, 
0.242912121, 0.340338793, 0.329865574, 0.282589660, 0.308337957, 0.227427547, 0.360767741, 0.401257131, -0.045154633, -0.188521729, 
-0.094001250, -0.039842743, -0.015878979, 0.008745971, 0.061599030, 0.017748135, 0.095913624, 0.099173875, -0.034660448, -0.054687875, 
-0.117825031, 0.031459960, 0.210666643, -0.010342511, 0.044535971, 0.222593703, -0.083222282, -0.070734039, 0.424284242, 0.482611671, 
0.371925667, 0.371307116, 0.360135023, 0.190208877, 0.168893721, 0.309601537, -0.166414667, -0.312864420, -0.089598016, 0.017581705, 
-0.022774998, -0.005502763, 0.088746302, 0.007304515, 0.055420533, 0.129282637, -0.032311208, 0.003498191, 0.023531856, 0.210389239, 
0.103200531, 0.100698047, 0.126029383, 0.020529396, -0.295852685, -0.175488513, 0.259145909, 0.400698728, 0.317442258, 0.312481189, 
0.230388091, 0.162343901, 0.219893831, 0.189421346, -0.118396990, -0.290487762, -0.021659959, 0.016568668, 0.015597367, 0.039779338, 
0.036106085, 0.066708392, -0.043674999, 0.067984079, -0.013228862, 0.262423573, 0.239781420, 0.287369407, 0.330439454, 0.197962437, 
0.056457738, -0.344088248, -0.614567741, -0.545808398, 0.007315612, 0.306995849, -0.139257278, -0.011280943, 0.241689309, 0.204751441, 
0.259803843, 0.276005354, 0.151390958, -0.085733802, -0.013530242, 0.014274426, -0.000148039, -0.007168920, 0.024009217, 0.044557679, 
0.049400754, 0.192443613, 0.159403889, 0.197098837, 0.150344770, 0.275096226, 0.171540795, 0.226498397, 0.048327789, -0.404120038, 
-0.611092273, -0.482100453, 0.032832251, 0.219803916, 0.086495726, 0.037107199, 0.183408119, 0.249910630, 0.260287714, 0.281082694, 
0.207624841, 0.043734890, -0.008720586, 0.000494272, 0.018580471, 0.019775652, 0.009675975, 0.066527166, 0.124297102, 0.247461938, 
0.306281994, 0.185280406, -0.056778843, 0.059508874, 0.209288575, 0.132818299, 0.132209327, -0.468898380, -0.579637293, -0.401163342, 
0.030296154, 0.106490677, 0.088793242, -0.119579313, 0.179337912, 0.220762607, 0.313935620, 0.195161378, 0.078023024, 0.004752871, 
0.015866365, 0.028729634, -0.019638543, -0.013212438, 0.015214077, 0.084296879, 0.118707920, 0.327559763, 0.291597727, 0.278724584, 
0.069931133, -0.143511190, 0.062950600, 0.253716622, -0.002540702, -0.408501922, -0.454589104, -0.278131393, -0.079295625, 0.095127787, 
0.068063062, 0.266602974, 0.205666706, 0.157286398, 0.212750763, 0.125385510, -0.013799537, -0.105306787, -0.012410367, -0.027414549, 
0.003973934, -0.012856266, -0.025276463, 0.041314716, 0.102399545, 0.298699542, 0.235209632, 0.244900902, 0.257057328, 0.030602601, 
0.189671024, 0.007713536, -0.227038413, -0.460108533, -0.380531053, -0.253706358, -0.092917933, 0.012225604, 0.100221334, 0.194236478, 
0.033847554, -0.007340770, 0.113201263, 0.189671417, 0.019212903, -0.132730351, -0.005458736, -0.002991570, 0.030949614, 0.007848886, 
-0.015965471, -0.075480310, -0.011529949, 0.216049510, 0.162505148, 0.174905899, 0.358535114, 0.240116086, 0.294887995, -0.086419124, 
-0.253888614, -0.388296835, -0.290775082, 0.029459464, -0.017293818, -0.043159736, 0.047536675, -0.101528756, -0.013159084, -0.058160473, 
-0.117243705, 0.016022505, -0.111401912, -0.123752056, -0.031312933, -0.027195802, -0.019250787, 0.000084695, -0.028674684, -0.153545135, 
-0.118202406, 0.021019688, -0.044384159, 0.086921287, 0.206167229, 0.244096352, 0.332350453, 0.251648575, 0.032482076, -0.103338791, 
-0.205079767, -0.337618719, -0.199590705, -0.150548082, -0.180909884, -0.199059217, -0.184062613, -0.098443177, -0.103976918, -0.159766662, 
-0.115736629, 0.003429141, 0.013146509, -0.020723172, -0.012181807, -0.028922827, -0.043502530, -0.203571703, -0.187423912, -0.157955825, 
-0.192405321, -0.102614848, 0.030135534, 0.114275530, 0.179789320, 0.183979180, 0.045554865, -0.029338766, -0.090604666, -0.311003486, 
-0.316810474, -0.289479191, -0.264610827, -0.209312042, -0.277600757, -0.113049131, -0.173433662, -0.260165204, -0.190790199, -0.053123429, 
-0.009167657, -0.010970114, -0.003338221, -0.020070586, -0.026113708, -0.180926054, -0.227661402, -0.084362797, -0.110557674, -0.140393415, 
-0.232795156, -0.267476130, -0.289904780, -0.245159135, -0.006154804, -0.019141436, -0.005188947, -0.332517933, -0.403769044, -0.333415891, 
-0.293544402, -0.303040901, -0.221667104, -0.101808339, -0.197464934, -0.276669034, -0.115109253, -0.041555280, 0.013632964, 0.027221044, 
0.015740693, -0.020344978, -0.038581241, -0.229278467, -0.275395948, -0.092766958, -0.179564406, -0.175974502, -0.146683200, -0.230908759, 
-0.084970251, -0.066245686, 0.167179805, 0.115128211, -0.009288169, -0.019010209, -0.253419984, -0.220939325, -0.305377422, -0.321841483, 
-0.178537011, -0.130118799, -0.208403909, -0.229720119, -0.075307555, -0.063207941, -0.000225245, -0.025147622, -0.017126064, -0.021437460, 
-0.077732245, -0.221012373, -0.311616688, -0.210639620, -0.246837894, -0.287149839, -0.300509124, -0.100468461, -0.017662524, 0.262068042, 
0.219478761, 0.061236196, 0.070596076, -0.077426516, -0.144225889, -0.211830351, -0.297105490, -0.378659517, -0.155573464, -0.141492596, 
-0.221367159, -0.174034026, -0.042921370, -0.012628596, -0.023922848, 0.005723697, 0.019804823, 0.010395573, -0.035301204, -0.191082004, 
-0.283561693, -0.207238654, -0.130447358, 0.024010346, 0.005484261, -0.085076328, -0.110679090, 0.103810333, 0.248199797, 0.293346843, 
0.145644211, 0.137062723, -0.111762824, -0.121568472, -0.240746156, -0.240234303, -0.241484832, -0.167466749, -0.184382669, -0.036078572, 
-0.019605124, -0.031699465, -0.031632386, -0.028467049, 0.028957661, -0.021563312, -0.021972084, -0.106538443, -0.211160176, -0.290922436, 
-0.139114206, -0.066037578, -0.151327503, -0.111848563, 0.092077337, 0.156911825, 0.034584776, 0.010183794, 0.144117373, 0.080835967, 
0.062021192, -0.015373369, -0.181856792, -0.301987051, -0.233677254, -0.133489218, -0.066216943, -0.038244690, 0.015744388, -0.001449620, 
-0.002862243, 0.031305025, 0.007725944, 0.003921820, -0.045147115, -0.046156674, -0.052319397, -0.101852234, -0.112912942, -0.123283007, 
-0.199030584, -0.207276357, -0.033624669, 0.026503768, 0.062449995, 0.148744231, 0.130080316, 0.080031652, 0.080274916, -0.028992435, 
-0.227097443, -0.194377106, -0.111997093, -0.121727759, -0.119964061, -0.102703405, -0.011831920, -0.001579788, 0.001882394, 0.017429026, 
0.031325899, -0.028582402, 0.013871067, -0.002321244, 0.001655655, 0.001990574, -0.044639373, -0.007303525, -0.074398982, -0.114847088, 
-0.146704868, -0.147840641, -0.168170226, -0.052408340, 0.105625421, 0.047331567, 0.017512225, -0.042359848, -0.135765869, -0.141055811, 
-0.157822443, -0.156664810, -0.075732847, -0.041583285, -0.020297807, 0.018486585, -0.009282282, -0.023583959, -0.013444170, 0.028132420, 
0.026892154, -0.015006597, 0.027534201, -0.000894335, 0.011676580, -0.015865411, -0.043723670, -0.059139049, -0.003735355, -0.070893912, 
-0.143004987, -0.056151103, -0.038799151, -0.019855619, -0.080004158, -0.008790204, 0.020332823, 0.007133098, -0.060764107, -0.055756395, 
0.023285242, 0.016209597, 0.000322824, 0.012689980, -0.025068245, 0.025680415, -0.002407470, 0.000564551, -0.030729071, 0.018453728, 
-0.004788671, 0.028982189, -0.029408333, -0.005360667, 0.004655353, 0.027206755, -0.024402826, 0.029995271, 0.019310605, -0.034876977, 
0.015008357, -0.008230004, 0.022671983, 0.001399611, -0.013815369, 0.038055135, 0.002968497, -0.007375813, -0.011723971, 0.001758061, 
0.013372332, -0.013312482, -0.015579971, -0.019616920, -0.594884292 },
{ -0.007152488, -0.026913239, -0.003063907, 0.027001660, -0.024830726, -0.018518987, -0.011238046, -0.028710300, -0.015073051, 0.017910303, 
0.009716680, -0.020222760, 0.020589566, 0.008798501, -0.025036796, 0.021755952, 0.000123760, -0.002448616, 0.016664508, 0.020229860, 
0.012621079, 0.015321028, -0.019916859, -0.027906398, -0.029533115, 0.015571514, 0.018598334, -0.009745497, 0.032738532, 0.031797422, 
-0.010377755, -0.007161324, -0.027887595, 0.020796461, -0.013567131, -0.019823090, -0.030695610, 0.009968923, -0.012695355, -0.009719782, 
-0.004560806, 0.027543877, 0.001409751, -0.017403576, 0.007979982, 0.011586808, -0.030938840, -0.030188484, -0.026064330, 0.018853892, 
0.023002869, 0.019734141, -0.000136410, -0.029877591, 0.024797679, 0.003614052, 0.018667263, 0.010012728, 0.027326945, 0.018517092, 
0.008885832, -0.016277562, -0.015909363, 0.025937090, -0.010151687, 0.025430047, 0.050412182, 0.037468005, 0.057098270, 0.042495275, 
0.065313535, 0.085626553, 0.079711228, 0.109785137, 0.055655482, 0.040884444, 0.037211091, 0.034776014, 0.020630188, 0.014871333, 
0.003274284, 0.002328522, -0.001405709, -0.030645115, 0.005509998, -0.010373217, 0.006035855, -0.010542023, 0.042166484, 0.021616471, 
-0.001904423, 0.057067540, 0.105730870, 0.076604861, 0.098337461, 0.101648519, 0.142912170, 0.150890673, 0.205866289, 0.202406041, 
0.140111949, 0.186814742, 0.250738988, 0.215620809, 0.157206647, 0.074592565, 0.082297448, 0.145203709, 0.106310169, 0.033954935, 
0.005761607, -0.003980234, -0.006063350, -0.030253539, -0.001492568, 0.032100070, 0.037868518, 0.046399387, 0.084349577, 0.145061106, 
0.176178352, 0.169942624, 0.181741300, 0.164696954, 0.209799268, 0.181819580, 0.107617923, 0.089289478, 0.185446333, 0.076504899, 
0.243840670, 0.278100214, 0.278296523, 0.270331377, 0.140930837, 0.098041976, 0.123866224, 0.042902106, 0.012580058, 0.026937163, 
0.010332336, -0.022991116, -0.010286945, -0.024692723, 0.056477056, 0.120502772, 0.093507181, 0.131294856, 0.177210573, 0.225843699, 
0.327982477, 0.269690167, 0.250432963, 0.172785193, 0.102027449, 0.170250824, 0.307008190, 0.247286184, 0.306685223, 0.352174574, 
0.246645144, 0.180659410, 0.046515160, 0.073874153, 0.112099575, 0.017456821, -0.012449130, -0.001706573, -0.015046615, 0.017658591, 
-0.007323815, 0.050002590, 0.092029978, 0.078428988, 0.083975992, 0.063393147, 0.084598885, 0.162560045, 0.130307947, -0.017129710, 
0.057345579, 0.030058662, 0.134594024, 0.144917955, 0.182312947, -0.045447643, 0.006202282, -0.136660652, 0.016589404, -0.166887178, 
-0.179981470, -0.193293586, -0.057669311, -0.005461330, -0.058711083, -0.017732941, -0.008814648, -0.018522089, 0.005541592, -0.006850380, 
0.122523159, 0.053353434, -0.011446987, -0.144931201, -0.115046956, -0.098978149, -0.077046387, -0.128146369, -0.089857103, 0.030525997, 
0.201632888, 0.223496916, 0.049939962, -0.125442144, -0.328301775, -0.334042795, -0.156602454, -0.269404533, -0.280862745, -0.323278993, 
-0.193805825, -0.016472562, 0.002702298, -0.020093839, 0.026235393, -0.022316057, -0.082083952, -0.107040711, 0.066213944, -0.062346199, 
-0.020817172, -0.033548728, -0.164449114, 0.009031817, -0.045698952, -0.095972855, -0.151803529, -0.083636561, -0.162818937, -0.250725046, 
-0.270356174, -0.193160422, -0.283999192, -0.106482966, -0.254669154, -0.177019492, -0.213607702, -0.358765251, -0.257026449, -0.080934973, 
-0.032735989, 0.023268065, 0.017098364, -0.072891170, -0.129354655, -0.132376478, -0.078276573, -0.181218047, -0.059283890, -0.159897733, 
-0.013969946, -0.092618737, -0.188763902, -0.191818914, -0.178776979, -0.189204397, -0.139489843, -0.168964075, -0.240717472, -0.318345026, 
-0.321679913, -0.241279929, -0.231336343, -0.137614808, -0.068689888, -0.305663158, -0.349108807, -0.204737916, -0.058634458, 0.026624277, 
-0.015208402, -0.028248291, -0.124747357, -0.125032224, -0.047205207, -0.172305688, -0.102406292, -0.243022914, -0.282922177, -0.421053043, 
-0.374354660, -0.299643947, -0.220949212, -0.305483930, -0.234680251, -0.113180695, -0.214331052, -0.415491157, -0.372022381, -0.255478593, 
-0.329006216, -0.178937706, -0.235651705, -0.298024506, -0.272975128, -0.215350624, -0.066575536, -0.019670984, 0.010887101, -0.051882843, 
-0.168953684, -0.106826607, 0.017159433, -0.096179675, -0.204182482, -0.241868947, -0.118220555, -0.295146701, -0.262720199, -0.327121457, 
-0.321489449, -0.325282064, 0.074649695, 0.292632226, 0.119465475, -0.104570896, 0.155712191, -0.032858218, -0.026371142, -0.026413244, 
0.020698161, -0.015258089, -0.086819143, -0.101380140, -0.062396112, -0.013024181, 0.023817809, -0.078661387, -0.156782954, -0.126076291, 
-0.017284945, -0.165799115, -0.167935270, -0.099877660, -0.060187272, -0.078761265, -0.107813957, -0.279363036, -0.281288917, 0.203489942, 
0.420270959, 0.459469496, 0.371033093, 0.250449799, 0.174949922, 0.227901001, 0.115171203, 0.093155264, 0.015131593, 0.070494495, 
0.076716840, 0.003378381, -0.042231624, -0.017017029, -0.012192993, -0.068813355, -0.123518241, -0.062965863, -0.049255445, -0.134469194, 
-0.043417183, -0.000219808, 0.009291225, -0.065993829, -0.187511899, -0.065607376, 0.022372322, 0.363109501, 0.486940520, 0.531155187, 
0.371396429, 0.340598319, 0.237531649, 0.188665490, -0.085119025, 0.112293341, -0.107966172, -0.054695111, 0.105469420, 0.023646824, 
-0.005126821, -0.012398020, -0.014890626, -0.016324529, -0.066207316, 0.024400600, 0.087457126, -0.031459847, 0.036968697, 0.021175897, 
-0.030851999, -0.070014775, -0.227060726, -0.030567821, 0.182986322, 0.390863134, 0.456139122, 0.462301438, 0.350555763, 0.307690240, 
0.282096893, 0.206542786, 0.025727440, -0.017951039, -0.111233996, -0.174028044, 0.023426126, 0.051779368, -0.013789780, 0.015300047, 
-0.004768306, 0.016893145, -0.045398826, 0.071732334, 0.113112305, -0.000001852, 0.132497352, 0.035099650, 0.093977315, -0.054343862, 
-0.202238972, 0.055344198, 0.362813445, 0.586492038, 0.469530832, 0.390002403, 0.412554743, 0.260643819, 0.126557795, 0.201993103, 
0.098449168, -0.061961731, 0.003190918, -0.166992605, 0.040504490, 0.041172140, 0.030201309, -0.016141842, 0.011928850, -0.028726567, 
0.043985546, 0.037476443, 0.104314343, -0.062316171, 0.135592704, 0.128787597, 0.094576117, 0.014218542, -0.125294684, 0.326400885, 
0.528367824, 0.619975106, 0.540691024, 0.347027014, 0.354993920, 0.176371521, 0.274663736, 0.131182098, 0.123405168, 0.071701341, 
0.193094110, -0.053152062, -0.018015241, 0.037572626, 0.009671531, 0.001642582, 0.017882250, -0.015059788, 0.036444577, 0.086060353, 
-0.023925450, -0.179521568, 0.002650113, 0.193835596, 0.217576063, 0.150622342, -0.010281550, 0.253420193, 0.443793607, 0.454231349, 
0.376222050, 0.249777791, 0.101135324, 0.042444414, 0.123664582, 0.075529935, 0.057961266, 0.167004001, 0.133227793, -0.094511803, 
-0.001251962, -0.003735449, 0.019496745, 0.024211615, -0.024180967, -0.025367661, -0.012156929, 0.175971814, 0.034259982, -0.086088128, 
-0.016523205, -0.091821063, -0.152048248, 0.018720929, -0.044997269, 0.080195393, 0.048395164, 0.149701526, 0.343181424, 0.191910700, 
0.145722941, -0.135922901, -0.018404436, 0.109302393, 0.148436085, 0.194006951, -0.011924475, -0.019735581, 0.064721702, 0.076438292, 
-0.020086027, -0.001458447, -0.029824156, 0.018989574, -0.032156786, 0.153462486, 0.109767676, 0.164076770, 0.047489829, -0.183964649, 
-0.353093689, -0.224285382, -0.247234722, -0.054527689, -0.259203708, 0.048490478, 0.102596144, 0.108852147, 0.158305805, 0.197904321, 
0.086025007, 0.026896492, 0.104334012, 0.143725515, -0.013172367, -0.019974261, 0.021468405, 0.030386091, 0.017596450, -0.031903552, 
-0.019309993, 0.020172688, 0.012579991, 0.188880915, 0.182963888, 0.156888199, 0.104519977, 0.089456541, -0.006387599, -0.180186700, 
-0.187345029, -0.211541936, -0.247896339, -0.205710497, -0.008571152, 0.212820841, 0.252309096, 0.226543058, 0.174098567, 0.124473191, 
0.120883315, 0.149044090, -0.006738256, 0.035737122, 0.069236264, 0.012351644, 0.017515286, -0.022982213, 0.029702476, -0.007288140, 
0.014881240, 0.148023300, 0.164286475, 0.113323471, -0.082691607, -0.019830777, -0.019178248, -0.088192884, -0.183048682, -0.135750283, 
-0.027684210, 0.113020378, 0.231972027, 0.248403399, 0.180244887, 0.240250469, 0.178446950, 0.163417029, 0.092868286, 0.044668575, 
0.023082887, 0.043111893, 0.060722055, 0.035617132, -0.008885575, 0.018876041, -0.015650985, -0.029503764, 0.086614668, 0.131464824, 
0.207215735, 0.122604745, -0.062143627, -0.237235597, -0.119249477, -0.064355409, -0.154284225, -0.144838717, -0.009091203, -0.112147068, 
-0.168793858, -0.113954035, 0.083302132, -0.106471079, -0.045630199, 0.070371158, 0.074435378, 0.093630192, 0.047401300, 0.005352647, 
0.023364683, -0.003304778, 0.029005612, -0.016983653, -0.024842935, -0.016360309, 0.014734578, 0.113367215, 0.113278301, 0.060701900, 
-0.051991540, -0.044502442, 0.053615686, 0.012672968, -0.095421733, -0.061729301, -0.141100067, -0.094693352, -0.152349225, -0.035708071, 
-0.084844383, -0.108204434, 0.152964288, 0.151868265, 0.169737988, 0.150543082, 0.049566542, 0.035604789, 0.019988045, -0.005565406, 
0.029971017, -0.031380019, 0.012334088, 0.022184817, 0.001168466, 0.047633035, -0.013831790, -0.097467746, -0.011753059, 0.124025313, 
0.156695709, 0.162744012, 0.065620781, 0.043280827, -0.159046910, -0.266812527, -0.192742857, 0.066901130, 0.185606607, 0.067262845, 
0.034064435, 0.062253890, 0.138577940, 0.090256129, 0.061577177, 0.005765876, -0.034827835, 0.011665365, 0.017331068, 0.012186742, 
0.032675864, 0.010945341, 0.017510536, 0.005144926, -0.016887721, 0.096141281, 0.129547432, 0.095066784, 0.116182524, 0.173867007, 
0.272145300, 0.026752747, -0.047328628, -0.095122280, -0.132577907, -0.093197487, -0.101683784, -0.172943594, -0.156438684, -0.100232360, 
0.077183934, 0.066447237, 0.045597303, -0.017384019, -0.018451735, -0.000331582, -0.018592965, -0.002779381, -0.024269144, 0.031494954, 
-0.024328686, -0.024342813, 0.049214226, 0.057772470, 0.058770578, 0.028871126, 0.124309867, 0.092366862, 0.082733377, 0.111125292, 
0.172155169, 0.108130127, 0.029684144, -0.028863230, -0.081422997, -0.128971685, -0.140103801, -0.161236208, -0.026153961, 0.052887019, 
0.016760484, 0.043073937, -0.023973728, -0.000182630, -0.028302611, -0.000127589, 0.032173185, -0.013834786, 0.030265930, -0.024867296, 
-0.015209750, -0.027062497, -0.017787951, 0.024425663, 0.023039125, -0.033635415, -0.054971239, 0.033562923, 0.016117855, -0.016780162, 
-0.018774368, -0.011352384, 0.009242701, -0.029622856, -0.004262328, -0.063415002, 0.021720319, 0.024784661, 0.027475764, 0.005655813, 
0.009854672, -0.003163481, 0.006612908, 0.019225839, -0.356668389 },
{ 0.011591470, -0.015023279, 0.029306350, 0.030719588, -0.017713404, -0.028390392, -0.017411244, -0.011359040, -0.011325747, -0.022855030, 
-0.015909817, -0.005936293, -0.024106334, -0.040170354, 0.019809496, 0.029066851, 0.022545863, -0.022911856, -0.009627267, -0.014273850, 
-0.030496775, 0.008131117, -0.015344617, 0.019388287, -0.005287136, 0.025256315, -0.005134366, 0.025406231, -0.001983550, -0.019663313, 
0.022431573, -0.024176311, -0.000613229, 0.018767290, -0.027686065, 0.010919644, -0.022953750, -0.053677663, -0.069411278, -0.076631713, 
-0.102740570, -0.052517514, -0.006578261, -0.019781103, -0.046381627, -0.031476347, -0.000767629, -0.024861628, -0.008310362, -0.044653440, 
-0.021738601, -0.001957424, 0.008920794, 0.016937647, -0.008731498, -0.029547086, 0.008775867, 0.020450709, 0.028675690, -0.027473586, 
-0.032266302, 0.018024957, -0.023270893, -0.037736330, -0.067889117, -0.125834183, -0.195241134, -0.185843026, -0.203492800, -0.183010889, 
-0.157282649, -0.155002210, -0.136268294, -0.123824013, -0.040214411, -0.021572089, -0.032239042, -0.013705229, -0.044131081, -0.045387124, 
-0.006020108, 0.003099668, 0.014424978, -0.020052384, -0.008305177, -0.027588939, -0.016629637, -0.034306239, 0.025512544, -0.030249283, 
-0.072473188, -0.073818836, -0.141431702, -0.215438957, -0.285460049, -0.323658903, -0.364813333, -0.410484755, -0.412456116, -0.371808152, 
-0.311115512, -0.309564355, -0.225072995, -0.125872905, -0.168961165, -0.092522203, -0.048962425, -0.100534445, -0.086194142, 0.009072259, 
-0.025093019, 0.009678418, -0.009866618, -0.030462715, 0.023048409, 0.017001560, -0.026302036, -0.046363606, -0.076153316, -0.206612826, 
-0.232835789, -0.248871036, -0.259053369, -0.212517432, -0.109606177, -0.090542150, 0.006537676, 0.019744537, 0.068599203, 0.046799990, 
-0.054585367, -0.030580567, -0.076220879, 0.028151692, -0.062013986, -0.087442030, -0.067133751, -0.069444204, 0.049829161, -0.007042678, 
0.017593768, -0.015583815, -0.030347026, -0.025967033, -0.019151710, -0.025745731, -0.138182678, -0.252298494, -0.255247483, -0.147453803, 
-0.193718159, -0.152794137, -0.073098402, -0.159055848, -0.079673909, -0.108866750, -0.109156904, -0.054199108, -0.084427157, -0.089358871, 
0.042122040, 0.127768497, 0.133785783, 0.105390737, 0.011769948, 0.032656809, 0.032833064, 0.029998631, -0.032671133, 0.012133859, 
-0.017439362, 0.001138246, 0.018031753, -0.085609257, -0.178569880, -0.249087310, -0.130990188, -0.074070736, -0.105949989, -0.055070237, 
-0.079752538, -0.158312408, -0.169650162, 0.048661061, -0.025042427, -0.108693625, -0.212520859, 0.004207793, 0.147012583, 0.129709358, 
0.171668893, 0.142794215, 0.113309658, 0.021334773, -0.021753071, -0.007665386, -0.019127103, 0.025628803, -0.028741461, -0.027937632, 
-0.032160690, -0.052722548, -0.099217216, 0.010143716, 0.209294170, 0.255426821, 0.077790314, -0.052984426, 0.145831776, 0.140818650, 
-0.136273113, 0.042807482, 0.206575418, -0.049990508, 0.078622451, 0.084154107, 0.331528668, 0.243207400, 0.169429854, 0.213596092, 
0.118452525, -0.043501294, 0.009193043, 0.033923622, -0.019210279, 0.021090676, -0.021729821, 0.008063218, -0.011548055, 0.073990797, 
0.098320320, 0.215825205, 0.364450667, 0.310723788, 0.111990138, 0.210178956, 0.312327690, 0.263471520, -0.136909899, 0.038305794, 
0.197619268, 0.183001207, 0.246968596, 0.173297661, 0.147142539, 0.122590902, 0.083810223, 0.069069401, 0.027176353, -0.090612035, 
0.044855667, 0.051118727, -0.014787319, 0.004424999, 0.042301919, 0.027517775, 0.051415069, 0.153635656, 0.226074372, 0.221461451, 
0.201236182, 0.314843367, 0.169268091, 0.276591752, 0.200356740, 0.236578823, 0.044242648, -0.007737762, 0.024109394, 0.141811248, 
0.117770753, 0.090245715, -0.117008007, -0.011551468, 0.075469697, 0.070624802, -0.004079319, 0.001236417, -0.002485494, 0.030010500, 
0.016573184, 0.026362142, 0.041885451, -0.016136524, 0.132619606, 0.177576323, 0.275290166, 0.332088859, 0.333667989, 0.434915994, 
